<?xml version="1.0"?>
<opencv_storage>
<opencv_ml_svm>
  <format>3</format>
  <svmType>C_SVC</svmType>
  <kernel>
    <type>RBF</type>
    <gamma>1.0000000000000001e-01</gamma></kernel>
  <C>1.</C>
  <term_criteria><iterations>20000</iterations></term_criteria>
  <var_count>512</var_count>
  <class_count>2</class_count>
  <class_labels type_id="opencv-matrix">
    <rows>2</rows>
    <cols>1</cols>
    <dt>i</dt>
    <data>
      0 1</data></class_labels>
  <sv_total>63</sv_total>
  <support_vectors>
    <_>
      1.89393945e-02 3.78787890e-03 7.57575780e-03 7.57575780e-03
      2.65151523e-02 0. 0. 7.57575780e-03 7.57575780e-03 0. 0. 0.
      1.89393945e-02 0. 0. 7.57575780e-03 0. 0. 0. 0. 0. 0. 0. 0.
      7.57575780e-03 0. 0. 0. 3.78787890e-03 3.78787890e-03
      3.78787890e-03 3.78787890e-03 1.13636367e-02 3.78787890e-03
      3.78787890e-03 3.78787890e-03 2.27272734e-02 3.78787890e-03
      3.78787890e-03 0. 0. 0. 0. 0. 3.78787890e-03 0. 3.78787890e-03 0.
      3.78787890e-03 0. 0. 0. 0. 0. 0. 0. 1.13636367e-02 0. 0.
      3.78787890e-03 3.78787890e-03 0. 3.78787890e-03 0. 5.30303046e-02
      1.13636367e-02 1.51515156e-02 1.13636367e-02 1.13636367e-02 0.
      7.57575780e-03 3.78787890e-03 7.57575780e-03 3.78787890e-03 0. 0.
      3.78787890e-03 0. 3.78787890e-03 3.78787890e-03 3.78787890e-03
      3.78787890e-03 1.13636367e-02 0. 3.78787890e-03 0. 3.78787890e-03
      0. 0. 3.78787890e-03 7.57575780e-03 0. 3.03030312e-02 0.
      5.68181835e-02 3.78787890e-03 5.68181835e-02 7.57575780e-03
      7.57575780e-03 7.57575780e-03 1.51515156e-02 0. 0. 1.89393945e-02
      1.13636367e-02 3.78787890e-03 0. 0. 7.57575780e-03 0.
      3.78787890e-03 3.78787890e-03 1.89393945e-02 7.57575780e-03 0. 0.
      0. 0. 3.78787890e-03 0. 3.78787890e-03 0. 7.57575780e-03
      3.78787890e-03 2.65151523e-02 0. 2.65151523e-02 1.51515156e-02
      5.68181835e-02 7.57575780e-03 0. 0. 3.78787890e-03 1.13636367e-02
      3.78787890e-03 7.57575780e-03 7.57575780e-03 7.57575780e-03 0. 0.
      7.57575780e-03 0. 3.78787890e-03 0. 3.78787890e-03 0.
      3.78787890e-03 0. 0. 0. 0. 0. 0. 0. 0. 0. 1.51515156e-02 0. 0. 0.
      4.92424257e-02 1.51515156e-02 3.78787890e-03 0. 0. 0. 0.
      7.57575780e-03 0. 3.78787890e-03 0. 0. 0. 3.78787890e-03
      3.78787890e-03 1.13636367e-02 1.51515156e-02 0. 0. 0. 0. 0. 0. 0.
      3.78787890e-03 3.78787890e-03 3.78787890e-03 0. 1.13636367e-02 0.
      3.78787890e-03 7.57575780e-03 5.30303046e-02 0. 0. 0.
      1.51515156e-02 0. 7.57575780e-03 2.27272734e-02 7.57575780e-03 0.
      0. 0. 7.57575780e-03 0. 3.78787890e-03 4.54545468e-02
      2.65151523e-02 0. 0. 0. 0. 0. 0. 0. 7.57575780e-03 3.78787890e-03
      3.78787890e-03 0. 1.51515156e-02 7.57575780e-03 0. 7.57575780e-03
      4.92424257e-02 7.57575780e-03 0. 1.51515156e-02 1.89393945e-02
      3.78787890e-03 1.89393945e-02 2.65151523e-02 0. 0. 3.78787890e-03
      0. 7.57575780e-03 0. 0. 7.57575780e-03 7.57575780e-03
      3.78787890e-03 0. 0. 0. 0. 3.78787890e-03 0. 7.57575780e-03 0.
      7.57575780e-03 3.78787890e-03 1.89393945e-02 3.78787890e-03
      3.78787890e-03 0. 5.30303046e-02 7.57575780e-03 3.78787890e-03
      3.78787890e-03 3.03030312e-02 0. 0. 1.13636367e-02 3.78787890e-03
      0. 0. 0. 3.78787890e-03 3.78787890e-03 0. 0. 3.78787890e-03 0. 0.
      0. 7.57575780e-03 0. 3.78787890e-03 0. 7.57575780e-03 0.
      3.78787890e-03 0. 1.13636367e-02 0. 0. 3.78787890e-03
      2.65151523e-02 1.89393945e-02 3.78787890e-03 3.78787890e-03
      3.78787890e-03 0. 1.13636367e-02 1.51515156e-02 0. 0. 0. 0.
      1.13636367e-02 0. 7.57575780e-03 1.51515156e-02 3.78787890e-03 0.
      7.57575780e-03 0. 0. 0. 0. 3.78787890e-03 3.78787890e-03 0. 0. 0.
      1.13636367e-02 3.78787890e-03 3.78787890e-03 0. 2.65151523e-02 0.
      3.78787890e-03 1.51515156e-02 1.51515156e-02 0. 7.57575780e-03
      1.51515156e-02 3.78787890e-03 0. 7.57575780e-03 0. 7.57575780e-03
      0. 1.13636367e-02 2.65151523e-02 3.78787890e-03 0. 0. 0.
      7.57575780e-03 0. 0. 0. 3.78787890e-03 0. 0. 0. 1.89393945e-02 0.
      7.57575780e-03 2.27272734e-02 4.92424257e-02 1.13636367e-02
      3.78787890e-03 7.57575780e-03 1.13636367e-02 0. 3.78787890e-03
      1.51515156e-02 3.78787890e-03 3.78787890e-03 3.78787890e-03 0.
      3.78787890e-03 0. 3.78787890e-03 3.40909101e-02 1.51515156e-02
      3.78787890e-03 7.57575780e-03 0. 7.57575780e-03 0. 0. 0.
      3.78787890e-03 0. 3.78787890e-03 0. 2.27272734e-02 0.
      2.27272734e-02 7.57575780e-03 4.16666679e-02 1.51515156e-02 0.
      7.57575780e-03 3.78787890e-03 0. 1.89393945e-02 7.57575780e-03 0.
      0. 0. 0. 3.78787890e-03 3.78787890e-03 3.78787890e-03
      1.13636367e-02 1.89393945e-02 1.51515156e-02 3.78787890e-03
      7.57575780e-03 0. 0. 0. 0. 1.13636367e-02 0. 0. 0. 7.57575780e-03
      0. 0. 1.13636367e-02 4.16666679e-02 1.51515156e-02 0.
      1.13636367e-02 1.13636367e-02 3.78787890e-03 1.51515156e-02
      3.78787890e-03 7.57575780e-03 3.78787890e-03 0. 0. 1.13636367e-02
      3.78787890e-03 0. 4.54545468e-02 2.65151523e-02 0. 0. 0.
      3.78787890e-03 3.78787890e-03 0. 0. 0. 0. 0. 0. 0. 3.78787890e-03
      2.27272734e-02 3.78787890e-03 4.16666679e-02 3.78787890e-03
      7.57575780e-03 0. 2.65151523e-02 0. 7.57575780e-03 1.51515156e-02
      7.57575780e-03 3.78787890e-03 0. 0. 7.57575780e-03 0.
      7.57575780e-03 3.78787890e-03 3.40909101e-02 0. 0. 0. 0. 0. 0. 0.
      0. 3.78787890e-03 0. 0. 1.13636367e-02 0. 3.78787890e-03
      3.78787890e-03 3.78787890e-02 3.78787890e-03 7.57575780e-03
      7.57575780e-03 2.27272734e-02 7.57575780e-03 1.13636367e-02
      1.13636367e-02 7.57575780e-03 3.78787890e-03 0. 0. 3.78787890e-03
      0. 0. 3.78787890e-03 7.57575780e-03 0. 0. 0. 0. 0. 0. 0.
      3.78787890e-03 0. 0. 3.78787890e-03 7.57575780e-03 0.
      7.57575780e-03 0.</_>
    <_>
      3.78787890e-02 3.78787890e-03 3.78787890e-03 1.13636367e-02
      2.27272734e-02 0. 2.27272734e-02 5.30303046e-02 3.78787890e-03 0.
      0. 0. 2.65151523e-02 7.57575780e-03 3.03030312e-02 7.19697028e-02
      0. 0. 1.51515156e-02 3.78787890e-03 0. 0. 3.78787890e-03
      3.78787890e-03 0. 3.78787890e-03 0. 0. 5.30303046e-02 0.
      2.27272734e-02 4.54545468e-02 3.03030312e-02 0. 1.51515156e-02
      3.78787890e-02 1.51515156e-02 1.13636367e-02 1.13636367e-02
      3.78787890e-02 1.13636367e-02 0. 0. 0. 7.57575780e-03
      3.78787890e-03 3.78787890e-02 7.19697028e-02 0. 3.78787890e-03 0.
      3.78787890e-03 7.57575780e-03 0. 3.78787890e-03 0. 7.57575780e-03
      3.78787890e-03 0. 0. 3.03030312e-02 0. 1.06060609e-01
      5.30303046e-02 3.40909101e-02 7.57575780e-03 3.78787890e-03
      3.78787890e-03 7.57575780e-03 0. 7.57575780e-03 4.92424257e-02
      3.78787890e-03 0. 0. 3.78787890e-03 2.27272734e-02 3.78787890e-03
      4.16666679e-02 5.68181835e-02 1.51515156e-02 0. 3.78787890e-03 0.
      0. 0. 3.78787890e-03 0. 1.51515156e-02 3.78787890e-03 0. 0.
      6.81818202e-02 3.78787890e-03 9.09090936e-02 2.27272734e-02
      3.03030312e-02 1.13636367e-02 3.78787890e-03 1.13636367e-02
      1.89393945e-02 3.78787890e-03 7.57575780e-03 5.30303046e-02 0.
      3.78787890e-03 0. 0. 3.78787890e-03 0. 5.30303046e-02
      7.19697028e-02 2.27272734e-02 3.78787890e-03 0. 0. 1.13636367e-02
      0. 0. 0. 0. 0. 0. 0. 3.78787890e-02 3.78787890e-03 1.13636367e-01
      4.92424257e-02 2.27272734e-02 3.78787890e-03 0. 0. 4.16666679e-02
      3.78787890e-03 3.78787890e-03 3.78787890e-03 0. 0. 0. 0.
      3.78787890e-03 0. 0. 0. 3.78787890e-03 0. 0. 0. 0. 0. 0. 0. 0. 0.
      0. 0. 7.57575780e-03 0. 7.57575780e-03 0. 2.27272734e-02
      3.78787890e-03 3.78787890e-03 3.78787890e-03 1.51515156e-02 0.
      7.57575780e-03 1.13636367e-02 0. 0. 0. 0. 3.78787890e-03 0.
      7.57575780e-03 0. 0. 0. 0. 0. 3.78787890e-03 0. 0. 0.
      3.78787890e-03 0. 0. 0. 1.89393945e-02 0. 0. 0. 3.78787890e-02 0.
      7.57575780e-03 3.78787890e-03 5.68181835e-02 0. 3.78787890e-03 0.
      0. 0. 0. 3.78787890e-03 3.78787890e-03 0. 0. 3.78787890e-03 0. 0.
      0. 0. 0. 0. 0. 0. 0. 0. 0. 0. 7.57575780e-03 0. 1.13636367e-02
      1.13636367e-02 3.03030312e-02 0. 3.78787890e-03 0. 2.27272734e-02
      7.57575780e-03 0. 1.13636367e-02 7.57575780e-03 0. 0. 0. 0. 0.
      7.57575780e-03 3.03030312e-02 7.57575780e-03 0. 0. 0. 0. 0. 0.
      3.78787890e-03 3.78787890e-03 0. 0. 0. 7.57575780e-03 0.
      1.13636367e-02 1.13636367e-02 4.92424257e-02 3.78787890e-03
      3.78787890e-03 7.57575780e-03 3.03030312e-02 0. 1.13636367e-02
      1.13636367e-02 0. 0. 3.78787890e-03 0. 7.57575780e-03 0.
      3.78787890e-03 7.57575780e-03 7.57575780e-03 3.78787890e-03 0. 0.
      3.78787890e-03 0. 0. 0. 3.78787890e-03 0. 0. 0. 3.78787890e-03 0.
      1.13636367e-02 7.57575780e-03 2.27272734e-02 0. 0. 1.13636367e-02
      3.78787890e-02 0. 0. 1.13636367e-02 7.57575780e-03 0. 0. 0.
      7.57575780e-03 0. 3.78787890e-03 3.78787890e-03 0. 0. 0. 0. 0. 0.
      0. 0. 0. 0. 0. 0. 7.57575780e-03 0. 0. 0. 3.78787890e-02 0.
      7.57575780e-03 7.57575780e-03 2.65151523e-02 3.78787890e-03
      3.78787890e-03 7.57575780e-03 7.57575780e-03 0. 0. 0.
      1.13636367e-02 0. 7.57575780e-03 0. 0. 7.57575780e-03 0. 0.
      3.78787890e-03 0. 0. 0. 0. 0. 0. 0. 7.57575780e-03 0. 0. 0.
      3.40909101e-02 0. 0. 0. 3.40909101e-02 0. 0. 1.13636367e-02
      3.78787890e-03 0. 0. 0. 3.78787890e-03 0. 0. 7.57575780e-03 0.
      3.78787890e-03 0. 0. 0. 0. 0. 0. 3.78787890e-03 0. 0. 0.
      3.78787890e-03 0. 0. 3.78787890e-03 3.03030312e-02 7.57575780e-03
      0. 7.57575780e-03 1.51515156e-02 0. 7.57575780e-03 1.13636367e-02
      0. 0. 0. 0. 3.78787890e-03 0. 0. 3.78787890e-03 1.13636367e-02 0.
      0. 0. 0. 0. 0. 0. 0. 0. 0. 0. 7.57575780e-03 0. 0. 0.
      4.54545468e-02 3.78787890e-03 0. 1.13636367e-02 3.78787890e-03 0.
      3.78787890e-03 1.13636367e-02 3.78787890e-03 0. 0. 0.
      3.78787890e-03 3.78787890e-03 0. 1.51515156e-02 1.13636367e-02 0.
      0. 0. 7.57575780e-03 0. 0. 7.57575780e-03 3.78787890e-03 0. 0. 0.
      0. 0. 0. 3.78787890e-03 3.03030312e-02 7.57575780e-03
      3.78787890e-03 0. 1.89393945e-02 0. 3.78787890e-03 1.13636367e-02
      3.78787890e-03 0. 0. 0. 1.13636367e-02 0. 7.57575780e-03
      7.57575780e-03 3.78787890e-03 3.78787890e-03 0. 0. 3.78787890e-03
      0. 0. 0. 0. 0. 0. 0. 7.57575780e-03 0. 2.65151523e-02
      7.57575780e-03 3.78787890e-02 1.13636367e-02 7.57575780e-03 0.
      1.13636367e-02 0. 0. 3.78787890e-03 3.78787890e-03 0. 0. 0.
      3.78787890e-03 0. 0. 7.57575780e-03 3.78787890e-03 3.78787890e-03
      0. 0. 3.78787890e-03 0. 0. 0. 0. 0. 0. 0. 7.57575780e-03 0.
      2.65151523e-02 1.51515156e-02</_>
    <_>
      1.13636367e-02 0. 3.78787890e-03 0. 1.51515156e-02 0.
      7.57575780e-03 5.68181835e-02 0. 0. 0. 0. 1.51515156e-02 0.
      2.27272734e-02 1.51515156e-02 0. 0. 0. 0. 0. 0. 0. 0.
      3.78787890e-03 0. 0. 0. 4.54545468e-02 0. 3.40909101e-02
      1.13636367e-02 1.13636367e-02 1.89393945e-02 0. 7.57575780e-03 0.
      0. 1.51515156e-02 1.89393945e-02 0. 0. 0. 3.78787890e-03
      3.78787890e-03 0. 1.89393945e-02 4.54545468e-02 3.78787890e-03 0.
      0. 3.78787890e-03 0. 3.78787890e-03 3.78787890e-03 0. 0.
      3.78787890e-03 3.78787890e-03 0. 4.92424257e-02 0. 3.03030312e-02
      1.89393945e-02 1.13636367e-02 1.89393945e-02 0. 0. 3.78787890e-03
      0. 0. 2.27272734e-02 3.78787890e-03 0. 0. 0. 0. 3.78787890e-03
      4.16666679e-02 1.51515156e-01 5.68181835e-02 2.65151523e-02 0. 0.
      0. 0. 3.78787890e-03 0. 7.57575780e-03 0. 0. 0. 1.89393945e-02 0.
      5.68181835e-02 6.06060624e-02 7.57575780e-03 1.13636367e-02 0.
      7.57575780e-03 3.78787890e-03 3.78787890e-03 0. 4.16666679e-02 0.
      0. 0. 3.78787890e-03 3.78787890e-03 0. 1.51515156e-02
      2.68939406e-01 2.65151523e-02 3.78787890e-03 0. 0. 0. 0. 0.
      7.57575780e-03 7.57575780e-03 0. 0. 0. 3.78787890e-03 0.
      2.27272734e-02 2.65151523e-02 2.27272734e-02 0. 0. 0.
      2.65151523e-02 0. 3.78787890e-03 1.13636367e-02 3.78787890e-03 0.
      0. 0. 7.57575780e-03 0. 0. 3.78787890e-03 0. 0. 0. 0.
      3.78787890e-03 0. 0. 0. 0. 0. 0. 0. 1.13636367e-02 0. 0.
      3.78787890e-03 1.51515156e-02 3.78787890e-03 0. 3.78787890e-03
      7.57575780e-03 0. 7.57575780e-03 2.27272734e-02 0. 3.78787890e-03
      0. 0. 0. 3.78787890e-03 7.57575780e-03 4.92424257e-02
      3.78787890e-03 0. 0. 0. 3.78787890e-03 0. 0. 3.78787890e-03
      1.13636367e-02 0. 0. 0. 2.65151523e-02 7.57575780e-03
      7.57575780e-03 3.78787890e-03 7.57575780e-03 7.57575780e-03 0.
      7.57575780e-03 3.78787890e-03 3.78787890e-03 7.57575780e-03
      2.65151523e-02 3.78787890e-03 3.78787890e-03 0. 0. 3.78787890e-03
      0. 1.51515156e-02 1.89393945e-02 1.13636367e-02 3.78787890e-03 0.
      0. 0. 0. 3.78787890e-03 3.78787890e-03 1.13636367e-02 0. 0. 0.
      1.13636367e-02 0. 7.57575780e-03 1.13636367e-02 7.57575780e-03 0.
      0. 7.57575780e-03 3.03030312e-02 0. 1.51515156e-02 4.54545468e-02
      0. 0. 0. 0. 7.57575780e-03 0. 1.51515156e-02 2.27272734e-02 0. 0.
      0. 0. 3.78787890e-03 0. 0. 0. 0. 0. 0. 0. 4.92424257e-02 0.
      2.27272734e-02 7.57575780e-03 1.89393945e-02 3.78787890e-03 0. 0.
      2.27272734e-02 0. 0. 0. 0. 0. 0. 0. 3.78787890e-03 0. 0. 0. 0. 0.
      0. 0. 0. 0. 0. 0. 0. 0. 0. 0. 0. 0. 7.57575780e-03 0.
      1.51515156e-02 0. 0. 0. 0. 0. 0. 1.13636367e-02 3.78787890e-03 0.
      0. 0. 0. 3.78787890e-03 7.57575780e-03 7.57575780e-03
      3.78787890e-03 0. 0. 0. 0. 0. 0. 0. 3.78787890e-03 0. 0. 0.
      1.13636367e-02 0. 3.78787890e-03 0. 1.51515156e-02 7.57575780e-03
      3.78787890e-03 0. 1.13636367e-02 0. 3.78787890e-03 2.27272734e-02
      3.78787890e-03 0. 0. 0. 0. 0. 1.13636367e-02 2.27272734e-02
      1.51515156e-02 3.78787890e-03 0. 0. 3.78787890e-03 0. 0.
      3.78787890e-03 0. 0. 0. 3.78787890e-03 3.78787890e-03 0.
      1.13636367e-02 1.13636367e-02 2.27272734e-02 0. 0. 0.
      2.27272734e-02 0. 3.78787890e-03 0. 0. 0. 0. 0. 0. 0. 0. 0. 0. 0.
      0. 0. 0. 0. 0. 0. 0. 0. 0. 0. 0. 0. 0. 0. 1.51515156e-02
      2.27272734e-02 0. 1.13636367e-02 7.57575780e-03 0. 0. 0. 0. 0. 0.
      0. 0. 3.78787890e-03 3.03030312e-02 7.19697028e-02 1.51515156e-02
      1.13636367e-02 0. 0. 0. 0. 0. 0. 7.57575780e-03 0. 0. 0.
      7.57575780e-03 0. 7.57575780e-03 4.16666679e-02 1.13636367e-02
      3.78787890e-03 0. 0. 0. 0. 0. 3.78787890e-03 0. 0. 0. 0. 0.
      3.78787890e-03 1.89393945e-02 4.16666679e-02 1.51515156e-02 0. 0.
      0. 0. 0. 0. 0. 3.78787890e-03 0. 0. 0. 7.57575780e-03 0.
      2.65151523e-02 2.27272734e-02 1.89393945e-02 0. 0. 7.57575780e-03
      7.57575780e-03 0. 0. 1.51515156e-02 0. 0. 0. 0. 1.13636367e-02 0.
      3.78787890e-03 7.57575780e-03 1.13636367e-02 0. 0. 0.
      3.78787890e-03 0. 0. 0. 3.78787890e-03 0. 0. 0. 1.51515156e-02 0.
      2.27272734e-02 7.57575780e-03 2.27272734e-02 0. 0. 0. 0. 0.
      7.57575780e-03 0. 0. 0. 0. 0. 3.78787890e-03 0. 0. 0.
      7.57575780e-03 0. 0. 0. 3.78787890e-03 0. 0. 0. 0. 0. 0. 0.
      3.78787890e-03 0. 3.78787890e-03 0.</_>
    <_>
      2.27272734e-02 1.51515156e-02 0. 0. 3.03030312e-02 3.78787890e-03
      3.03030312e-02 4.16666679e-02 3.78787890e-03 0. 7.57575780e-03
      3.78787890e-03 3.03030312e-02 3.78787890e-03 3.40909101e-02
      2.27272734e-02 3.78787890e-03 3.78787890e-03 0. 0. 0. 0. 0.
      3.78787890e-03 7.57575780e-03 0. 3.78787890e-03 0. 4.54545468e-02
      0. 2.27272734e-02 3.78787890e-02 2.65151523e-02 7.57575780e-03
      7.57575780e-03 3.78787890e-03 2.27272734e-02 0. 2.27272734e-02
      1.51515156e-02 7.57575780e-03 3.78787890e-03 0. 3.78787890e-03
      1.13636367e-02 0. 3.78787890e-02 5.30303046e-02 7.57575780e-03
      7.57575780e-03 0. 7.57575780e-03 0. 3.78787890e-03 0. 0.
      1.13636367e-02 3.78787890e-03 0. 7.57575780e-03 3.03030312e-02
      3.78787890e-03 9.09090936e-02 8.33333358e-02 3.03030312e-02
      1.13636367e-02 0. 7.57575780e-03 5.30303046e-02 3.78787890e-03
      1.51515156e-02 3.40909101e-02 7.57575780e-03 0. 1.13636367e-02
      3.78787890e-03 1.89393945e-02 0. 7.57575780e-03 7.57575780e-03
      7.57575780e-03 0. 0. 0. 3.78787890e-03 0. 0. 0. 3.78787890e-03 0.
      0. 1.13636367e-02 3.03030312e-02 3.78787890e-03 4.54545468e-02
      1.51515156e-02 3.03030312e-02 1.13636367e-02 3.78787890e-03
      1.51515156e-02 4.92424257e-02 0. 1.13636367e-02 3.78787890e-03 0.
      3.78787890e-03 0. 0. 3.78787890e-03 7.57575780e-03 0.
      2.27272734e-02 3.78787890e-03 0. 0. 0. 3.78787890e-03 0.
      1.13636367e-02 0. 7.57575780e-03 0. 3.78787890e-03 0.
      1.13636367e-02 0. 1.89393945e-02 3.78787890e-03 3.40909101e-02
      1.13636367e-02 0. 0. 3.40909101e-02 3.78787890e-03 1.89393945e-02
      1.51515156e-02 0. 0. 0. 3.78787890e-03 1.13636367e-02 0.
      1.89393945e-02 1.89393945e-02 1.13636367e-02 3.78787890e-03
      3.78787890e-03 3.78787890e-03 3.78787890e-03 0. 0. 3.78787890e-03
      7.57575780e-03 0. 0. 0. 1.51515156e-02 0. 1.51515156e-02
      1.13636367e-02 4.54545468e-02 1.13636367e-02 3.78787890e-03
      3.78787890e-03 1.89393945e-02 0. 1.13636367e-02 3.03030312e-02
      1.13636367e-02 0. 3.78787890e-03 0. 0. 0. 3.03030312e-02
      1.51515156e-02 1.13636367e-02 7.57575780e-03 0. 0. 0. 0. 0. 0.
      7.57575780e-03 0. 0. 3.78787890e-03 3.78787890e-03 3.78787890e-03
      3.78787890e-02 3.78787890e-02 3.03030312e-02 0. 1.13636367e-02 0.
      2.65151523e-02 0. 1.89393945e-02 3.78787890e-03 1.13636367e-02 0.
      0. 0. 7.57575780e-03 0. 1.13636367e-02 7.57575780e-03 0. 0. 0. 0.
      0. 0. 0. 0. 3.78787890e-03 0. 0. 0. 1.13636367e-02 0.
      7.57575780e-03 1.89393945e-02 5.30303046e-02 0. 0. 0.
      1.89393945e-02 3.78787890e-03 3.78787890e-03 0. 0. 0. 0.
      3.78787890e-03 3.78787890e-03 0. 0. 1.13636367e-02 3.78787890e-03
      0. 0. 0. 0. 3.78787890e-03 0. 0. 3.78787890e-03 0. 0. 0. 0. 0.
      1.13636367e-02 1.51515156e-02 6.06060624e-02 1.13636367e-02 0. 0.
      4.54545468e-02 0. 1.13636367e-02 0. 0. 0. 0. 0. 0. 0. 0. 0.
      1.13636367e-02 3.78787890e-03 0. 0. 0. 0. 0. 0. 0. 0. 0. 0.
      3.78787890e-03 0. 7.57575780e-03 3.78787890e-03 4.54545468e-02
      1.13636367e-02 0. 0. 1.89393945e-02 3.78787890e-03 1.13636367e-02
      7.57575780e-03 0. 7.57575780e-03 0. 3.78787890e-03 3.78787890e-03
      3.78787890e-03 7.57575780e-03 3.78787890e-03 1.51515156e-02
      3.78787890e-03 3.78787890e-03 0. 0. 0. 0. 0. 7.57575780e-03
      3.78787890e-03 0. 0. 3.78787890e-03 0. 3.78787890e-03
      3.78787890e-03 2.27272734e-02 0. 0. 7.57575780e-03 3.03030312e-02
      3.78787890e-03 1.13636367e-02 7.57575780e-03 3.78787890e-03 0. 0.
      0. 3.78787890e-03 0. 3.78787890e-03 0. 0. 0. 0. 0. 0. 0. 0. 0. 0.
      0. 0. 0. 7.57575780e-03 0. 3.78787890e-03 3.78787890e-03
      3.03030312e-02 3.78787890e-03 1.13636367e-02 1.51515156e-02
      1.13636367e-02 0. 1.13636367e-02 1.51515156e-02 3.78787890e-03 0.
      0. 7.57575780e-03 1.13636367e-02 3.78787890e-03 7.57575780e-03
      1.13636367e-02 7.57575780e-03 3.78787890e-03 0. 0. 3.78787890e-03
      0. 3.78787890e-03 0. 0. 0. 0. 0. 1.51515156e-02 0. 2.27272734e-02
      1.51515156e-02 5.68181835e-02 3.78787890e-03 3.78787890e-03 0.
      3.78787890e-03 3.78787890e-03 7.57575780e-03 3.78787890e-03
      3.78787890e-03 0. 0. 0. 0. 0. 0. 0. 2.27272734e-02 7.57575780e-03
      0. 3.78787890e-03 0. 0. 0. 0. 7.57575780e-03 0. 0. 0.
      3.78787890e-03 0. 7.57575780e-03 3.78787890e-03 3.78787890e-02
      7.57575780e-03 7.57575780e-03 0. 1.89393945e-02 0. 7.57575780e-03
      7.57575780e-03 0. 0. 0. 0. 1.13636367e-02 3.78787890e-03
      1.89393945e-02 7.57575780e-03 1.51515156e-02 3.78787890e-03 0. 0.
      0. 0. 0. 0. 3.78787890e-03 3.78787890e-03 0. 3.78787890e-03
      1.51515156e-02 0. 7.57575780e-03 2.65151523e-02 4.92424257e-02 0.
      0. 0. 3.78787890e-03 0. 3.78787890e-03 3.78787890e-03
      3.78787890e-03 0. 0. 0. 3.78787890e-03 0. 3.78787890e-03
      3.78787890e-03 2.27272734e-02 0. 0. 0. 0. 0. 3.78787890e-03 0.
      1.13636367e-02 0. 0. 0. 1.13636367e-02 0. 1.51515156e-02
      1.13636367e-02 4.16666679e-02 7.57575780e-03 7.57575780e-03 0.
      7.57575780e-03 3.78787890e-03 0. 0. 0. 0. 0. 0. 0. 0.
      7.57575780e-03 3.03030312e-02 1.51515156e-02 0. 0. 0. 0. 0.
      3.78787890e-03 0. 0. 0. 0. 0. 1.13636367e-02 0. 7.57575780e-03 0.</_>
    <_>
      5.68181835e-02 0. 3.78787890e-03 1.89393945e-02 1.13636367e-02
      7.57575780e-03 1.89393945e-02 1.89393945e-02 7.57575780e-03
      3.78787890e-03 0. 0. 3.78787890e-03 0. 2.27272734e-02
      7.57575780e-03 3.78787890e-03 3.78787890e-03 3.78787890e-03
      3.78787890e-03 3.78787890e-03 0. 3.78787890e-03 1.13636367e-02 0.
      0. 3.78787890e-03 0. 2.27272734e-02 0. 7.57575780e-03
      7.57575780e-03 4.54545468e-02 3.78787890e-03 1.51515156e-02
      7.57575780e-03 3.78787890e-03 0. 1.13636367e-02 7.57575780e-03
      3.78787890e-03 0. 0. 1.13636367e-02 7.57575780e-03 3.78787890e-03
      2.27272734e-02 4.16666679e-02 7.57575780e-03 0. 0. 3.78787890e-03
      7.57575780e-03 0. 3.78787890e-03 3.78787890e-03 3.78787890e-03 0.
      3.78787890e-03 0. 1.89393945e-02 7.57575780e-03 3.78787890e-02
      3.40909101e-02 3.78787890e-02 1.89393945e-02 1.13636367e-02
      1.13636367e-02 3.78787890e-03 3.78787890e-03 1.89393945e-02
      7.57575780e-03 3.78787890e-03 0. 3.78787890e-03 0. 1.13636367e-02
      3.78787890e-03 6.43939376e-02 6.06060624e-02 1.13636367e-02
      3.78787890e-03 0. 3.78787890e-03 3.78787890e-03 0. 7.57575780e-03
      7.57575780e-03 7.57575780e-03 0. 0. 3.78787890e-03 1.89393945e-02
      0. 6.06060624e-02 9.46969688e-02 5.30303046e-02 1.13636367e-02
      7.57575780e-03 2.27272734e-02 1.13636367e-02 0. 1.13636367e-02
      1.13636367e-02 3.78787890e-03 0. 0. 0. 7.57575780e-03
      3.78787890e-03 2.65151523e-02 2.27272734e-02 1.13636367e-02
      7.57575780e-03 3.78787890e-03 7.57575780e-03 0. 0. 0. 0.
      1.13636367e-02 0. 0. 0. 2.27272734e-02 3.78787890e-03
      7.95454532e-02 3.03030312e-02 4.54545468e-02 3.78787890e-03
      1.13636367e-02 3.78787890e-03 2.65151523e-02 0. 3.78787890e-03
      7.57575780e-03 3.78787890e-03 0. 0. 0. 1.51515156e-02 0.
      3.78787890e-03 3.78787890e-03 0. 0. 0. 0. 0. 0. 0. 0.
      7.57575780e-03 0. 0. 0. 1.89393945e-02 0. 3.78787890e-03
      3.78787890e-03 4.16666679e-02 7.57575780e-03 1.13636367e-02
      3.78787890e-03 1.51515156e-02 0. 3.78787890e-03 1.51515156e-02
      7.57575780e-03 0. 3.78787890e-03 0. 7.57575780e-03 3.78787890e-03
      3.78787890e-03 0. 7.57575780e-03 7.57575780e-03 0. 0.
      7.57575780e-03 0. 0. 0. 3.78787890e-03 0. 0. 0. 1.51515156e-02 0.
      0. 1.51515156e-02 7.19697028e-02 7.57575780e-03 1.13636367e-02
      3.78787890e-03 1.89393945e-02 3.78787890e-03 3.78787890e-03
      1.13636367e-02 0. 0. 7.57575780e-03 0. 3.78787890e-03 0.
      3.78787890e-03 1.51515156e-02 3.78787890e-03 0. 3.78787890e-03 0.
      7.57575780e-03 0. 0. 0. 3.78787890e-03 3.78787890e-03 0. 0.
      3.78787890e-03 0. 3.78787890e-03 7.57575780e-03 7.19697028e-02
      3.78787890e-03 1.89393945e-02 7.57575780e-03 1.13636367e-02
      7.57575780e-03 0. 1.13636367e-02 0. 7.57575780e-03 3.78787890e-03
      0. 3.78787890e-03 0. 3.78787890e-03 7.57575780e-03 7.57575780e-03
      0. 3.78787890e-03 0. 0. 0. 0. 7.57575780e-03 0. 0. 0. 0.
      3.78787890e-03 3.78787890e-03 1.51515156e-02 3.78787890e-03
      6.06060624e-02 3.78787890e-03 7.57575780e-03 0. 1.89393945e-02 0.
      3.78787890e-03 7.57575780e-03 3.78787890e-03 0. 0. 0. 0.
      3.78787890e-03 0. 0. 0. 3.78787890e-03 3.78787890e-03 0. 0. 0. 0.
      0. 3.78787890e-03 3.78787890e-03 0. 0. 7.57575780e-03 0.
      7.57575780e-03 3.78787890e-03 3.78787890e-02 3.78787890e-03
      7.57575780e-03 0. 7.57575780e-03 0. 3.78787890e-03 0.
      7.57575780e-03 0. 0. 0. 0. 0. 0. 3.78787890e-03 3.78787890e-03 0.
      3.78787890e-03 0. 0. 0. 0. 0. 1.13636367e-02 0. 0. 0.
      3.78787890e-03 0. 0. 3.78787890e-03 3.78787890e-02 1.13636367e-02
      1.51515156e-02 3.78787890e-03 3.78787890e-03 3.78787890e-03
      3.78787890e-03 1.51515156e-02 0. 3.78787890e-03 0. 0. 0. 0.
      3.78787890e-03 0. 1.89393945e-02 0. 0. 3.78787890e-03 0. 0. 0. 0.
      0. 0. 3.78787890e-03 0. 1.51515156e-02 0. 7.57575780e-03 0.
      6.81818202e-02 0. 3.78787890e-03 0. 1.51515156e-02 3.78787890e-03
      3.78787890e-03 3.78787890e-03 7.57575780e-03 3.78787890e-03 0. 0.
      3.78787890e-03 0. 0. 7.57575780e-03 2.65151523e-02 0. 0. 0.
      3.78787890e-03 0. 0. 3.78787890e-03 3.78787890e-03 0.
      3.78787890e-03 0. 1.89393945e-02 0. 7.57575780e-03 3.78787890e-03
      4.92424257e-02 7.57575780e-03 3.78787890e-03 0. 1.13636367e-02 0.
      0. 0. 0. 0. 0. 0. 0. 0. 0. 0. 1.89393945e-02 0. 0. 0. 0. 0. 0. 0.
      0. 0. 0. 0. 0. 0. 0. 0. 3.78787890e-02 7.57575780e-03 0.
      3.78787890e-03 0. 0. 3.78787890e-03 3.78787890e-03 0. 0. 0. 0.
      3.78787890e-03 0. 0. 0. 1.13636367e-02 0. 0. 0. 0. 0. 0. 0.
      3.78787890e-03 0. 0. 3.78787890e-03 3.78787890e-03 0. 0. 0.
      5.30303046e-02 3.78787890e-03 0. 0. 0. 0. 3.78787890e-03 0. 0. 0.
      3.78787890e-03 0. 0. 0. 0. 3.78787890e-03 1.51515156e-02 0. 0. 0.
      3.78787890e-03 0. 0. 0. 3.78787890e-03 0. 0. 0. 3.78787890e-03 0.
      2.27272734e-02 3.78787890e-03 5.30303046e-02 1.13636367e-02
      1.51515156e-02 3.78787890e-03 3.78787890e-03 0. 3.78787890e-03 0.
      0. 0. 3.78787890e-03 0. 7.57575780e-03 0. 7.57575780e-03
      3.78787890e-03 7.57575780e-03 1.13636367e-02 0. 0. 0.
      3.78787890e-03 1.13636367e-02 0. 0. 0. 0. 0. 7.57575780e-03 0.
      1.51515156e-02 1.13636367e-02</_>
    <_>
      4.16666679e-02 1.13636367e-02 7.57575780e-03 7.57575780e-03
      1.13636367e-02 0. 1.13636367e-02 4.16666679e-02 3.78787890e-03 0.
      0. 0. 1.89393945e-02 7.57575780e-03 1.13636367e-02 6.06060624e-02
      1.13636367e-02 7.57575780e-03 0. 3.78787890e-03 0. 0. 0. 0.
      3.03030312e-02 0. 0. 0. 2.27272734e-02 3.78787890e-03
      3.03030312e-02 3.03030312e-02 2.65151523e-02 3.40909101e-02 0. 0.
      7.57575780e-03 3.78787890e-03 3.78787890e-03 1.89393945e-02
      3.78787890e-03 3.78787890e-03 0. 0. 7.57575780e-03 3.78787890e-03
      1.89393945e-02 6.81818202e-02 2.65151523e-02 3.78787890e-03
      1.13636367e-02 3.78787890e-03 0. 0. 0. 0. 3.78787890e-03
      3.78787890e-03 0. 0. 1.89393945e-02 0. 7.19697028e-02
      7.57575780e-03 2.65151523e-02 2.27272734e-02 0. 3.78787890e-03
      3.78787890e-03 0. 0. 3.40909101e-02 3.78787890e-03 0. 0. 0.
      3.78787890e-03 3.78787890e-03 1.89393945e-02 5.68181835e-02
      1.51515156e-02 7.57575780e-03 3.78787890e-03 0. 0. 0. 0.
      3.78787890e-03 2.27272734e-02 0. 0. 0. 1.89393945e-02 0.
      6.06060624e-02 1.89393945e-02 3.40909101e-02 1.89393945e-02
      3.78787890e-03 3.78787890e-03 1.51515156e-02 3.78787890e-03
      7.57575780e-03 3.03030312e-02 7.57575780e-03 0. 0. 0.
      1.13636367e-02 0. 7.57575780e-03 4.16666679e-02 7.57575780e-03
      3.78787890e-03 7.57575780e-03 0. 0. 0. 0. 7.57575780e-03
      7.57575780e-03 7.57575780e-03 0. 0. 7.57575780e-03 3.78787890e-03
      1.13636367e-02 1.51515156e-02 2.27272734e-02 3.78787890e-03
      3.78787890e-03 7.57575780e-03 1.89393945e-02 3.78787890e-03
      1.89393945e-02 2.65151523e-02 3.78787890e-03 0. 0. 3.78787890e-03
      7.57575780e-03 0. 7.57575780e-03 4.16666679e-02 7.57575780e-03 0.
      0. 0. 0. 0. 0. 0. 3.78787890e-03 0. 0. 0. 1.51515156e-02 0.
      2.27272734e-02 2.27272734e-02 2.65151523e-02 0. 0. 1.13636367e-02
      2.27272734e-02 7.57575780e-03 0. 1.13636367e-02 3.78787890e-03 0.
      0. 0. 0. 3.78787890e-03 1.13636367e-02 2.27272734e-02
      7.57575780e-03 0. 3.78787890e-03 0. 0. 3.78787890e-03 0. 0.
      3.78787890e-03 0. 3.78787890e-03 0. 1.13636367e-02 0.
      3.78787890e-03 1.51515156e-02 2.65151523e-02 1.13636367e-02 0.
      7.57575780e-03 2.65151523e-02 0. 3.78787890e-03 7.57575780e-03
      3.78787890e-03 0. 0. 0. 3.78787890e-03 7.57575780e-03
      1.13636367e-02 2.27272734e-02 3.78787890e-03 0. 0. 0. 0. 0.
      3.78787890e-03 0. 0. 0. 0. 3.78787890e-03 7.57575780e-03 0.
      1.13636367e-02 3.40909101e-02 1.89393945e-02 0. 7.57575780e-03
      1.13636367e-02 4.54545468e-02 3.78787890e-03 3.78787890e-03
      7.57575780e-03 3.78787890e-03 0. 0. 0. 7.57575780e-03 0.
      1.13636367e-02 0. 0. 0. 0. 0. 3.78787890e-03 0. 0. 0.
      3.78787890e-03 0. 0. 0. 0. 0. 1.13636367e-02 1.51515156e-02
      3.03030312e-02 7.57575780e-03 0. 3.78787890e-03 3.03030312e-02
      3.78787890e-03 0. 1.89393945e-02 3.78787890e-03 0. 0. 0.
      1.13636367e-02 0. 1.51515156e-02 3.78787890e-03 1.51515156e-02
      3.78787890e-03 0. 0. 3.78787890e-03 0. 0. 0. 0. 0. 7.57575780e-03
      0. 7.57575780e-03 0. 0. 1.13636367e-02 3.40909101e-02
      7.57575780e-03 7.57575780e-03 1.13636367e-02 2.27272734e-02
      3.78787890e-03 3.78787890e-03 3.78787890e-03 0. 0. 0. 0.
      3.78787890e-03 0. 3.78787890e-03 0. 3.78787890e-03 0.
      3.78787890e-03 0. 0. 0. 0. 3.78787890e-03 1.13636367e-02 0. 0. 0.
      7.57575780e-03 0. 7.57575780e-03 3.78787890e-03 1.89393945e-02 0.
      0. 1.13636367e-02 4.54545468e-02 0. 1.13636367e-02 1.89393945e-02
      7.57575780e-03 0. 0. 0. 0. 0. 7.57575780e-03 7.57575780e-03
      7.57575780e-03 3.78787890e-03 0. 0. 0. 0. 0. 0. 3.78787890e-03 0.
      0. 0. 1.13636367e-02 0. 0. 3.78787890e-03 3.03030312e-02
      1.13636367e-02 0. 0. 2.65151523e-02 0. 7.57575780e-03
      7.57575780e-03 3.78787890e-03 0. 0. 0. 3.78787890e-03 0. 0.
      7.57575780e-03 3.78787890e-03 0. 0. 3.78787890e-03 0. 0. 0. 0.
      3.78787890e-03 3.78787890e-03 0. 0. 7.57575780e-03 0.
      7.57575780e-03 0. 3.03030312e-02 3.78787890e-03 7.57575780e-03 0.
      1.89393945e-02 0. 0. 3.78787890e-03 7.57575780e-03 0. 0. 0. 0. 0.
      7.57575780e-03 0. 1.13636367e-02 0. 0. 0. 0. 0. 0. 0.
      3.78787890e-03 0. 0. 0. 1.13636367e-02 3.78787890e-03
      3.78787890e-03 0. 3.78787890e-02 7.57575780e-03 0. 7.57575780e-03
      7.57575780e-03 0. 0. 1.89393945e-02 0. 0. 0. 0. 7.57575780e-03 0.
      2.27272734e-02 3.03030312e-02 1.13636367e-02 1.51515156e-02 0. 0.
      0. 0. 0. 0. 7.57575780e-03 0. 0. 0. 0. 0. 0. 1.89393945e-02
      2.65151523e-02 1.89393945e-02 7.57575780e-03 3.78787890e-03
      1.51515156e-02 0. 3.78787890e-03 0. 0. 0. 0. 0. 3.78787890e-03
      3.78787890e-03 3.78787890e-03 1.13636367e-02 2.27272734e-02
      3.78787890e-03 0. 0. 0. 0. 0. 0. 0. 0. 0. 0. 3.78787890e-03
      3.78787890e-03 0. 1.13636367e-02 3.40909101e-02 7.57575780e-03 0.
      3.78787890e-03 1.13636367e-02 0. 3.78787890e-03 2.27272734e-02 0.
      0. 0. 0. 3.78787890e-03 0. 1.51515156e-02 0. 1.13636367e-02
      2.27272734e-02 0. 3.78787890e-03 0. 0. 0. 0. 3.78787890e-03 0. 0.
      0. 3.78787890e-03 0. 1.89393945e-02 2.65151523e-02</_>
    <_>
      1.13636367e-02 3.78787890e-03 1.13636367e-02 3.78787890e-03
      7.57575780e-03 0. 1.13636367e-02 6.43939376e-02 3.78787890e-03 0.
      3.78787890e-03 0. 3.78787890e-03 7.57575780e-03 3.40909101e-02
      9.09090936e-02 7.57575780e-03 0. 0. 3.78787890e-03 0. 0. 0.
      3.78787890e-03 7.57575780e-03 3.78787890e-03 3.78787890e-03
      3.78787890e-03 3.78787890e-02 0. 1.06060609e-01 6.43939376e-02
      1.89393945e-02 3.78787890e-03 1.51515156e-02 1.51515156e-02
      1.13636367e-02 0. 2.27272734e-02 3.78787890e-02 0. 3.78787890e-03
      3.78787890e-03 0. 3.03030312e-02 0. 2.27272734e-02 3.03030312e-02
      0. 0. 3.78787890e-03 3.78787890e-03 7.57575780e-03 0.
      3.78787890e-03 3.78787890e-03 1.89393945e-02 0. 3.78787890e-03 0.
      2.65151523e-02 0. 8.71212184e-02 6.43939376e-02 1.89393945e-02
      7.57575780e-03 7.57575780e-03 1.51515156e-02 1.51515156e-02 0.
      1.89393945e-02 1.89393945e-02 1.13636367e-02 0. 0. 0.
      7.57575780e-03 0. 4.16666679e-02 6.81818202e-02 7.57575780e-03 0.
      0. 0. 0. 0. 0. 3.78787890e-03 1.89393945e-02 7.57575780e-03
      3.78787890e-03 7.57575780e-03 3.78787890e-02 7.57575780e-03
      8.33333358e-02 4.16666679e-02 3.03030312e-02 0. 1.51515156e-02
      1.51515156e-02 1.51515156e-02 7.57575780e-03 1.51515156e-02
      4.16666679e-02 3.78787890e-03 3.78787890e-03 1.13636367e-02 0.
      1.13636367e-02 1.13636367e-02 1.89393945e-02 6.43939376e-02
      1.13636367e-02 0. 7.57575780e-03 0. 7.57575780e-03 0. 0. 0.
      7.57575780e-03 3.78787890e-03 0. 0. 1.13636367e-02 0.
      2.27272734e-02 1.51515156e-02 4.54545468e-02 7.57575780e-03 0.
      3.78787890e-03 1.89393945e-02 0. 1.89393945e-02 1.13636367e-02
      7.57575780e-03 0. 3.78787890e-03 0. 7.57575780e-03 0.
      1.51515156e-02 7.57575780e-03 1.13636367e-02 0. 0. 0. 0. 0. 0.
      3.78787890e-03 7.57575780e-03 0. 0. 0. 3.78787890e-03 0.
      3.03030312e-02 2.65151523e-02 2.65151523e-02 0. 0. 3.78787890e-03
      4.54545468e-02 3.78787890e-03 0. 2.65151523e-02 3.78787890e-03 0.
      0. 0. 0. 3.78787890e-03 7.57575780e-03 1.13636367e-02 0. 0. 0. 0.
      3.78787890e-03 0. 0. 0. 7.57575780e-03 3.78787890e-03
      3.78787890e-03 0. 7.57575780e-03 0. 6.81818202e-02 2.27272734e-02
      4.54545468e-02 7.57575780e-03 1.13636367e-02 1.13636367e-02
      1.89393945e-02 3.78787890e-03 3.78787890e-03 1.89393945e-02 0. 0.
      3.78787890e-03 0. 1.13636367e-02 3.78787890e-03 3.78787890e-03
      6.43939376e-02 3.78787890e-03 0. 3.78787890e-03 0. 3.78787890e-03
      0. 0. 0. 3.78787890e-03 0. 0. 0. 1.51515156e-02 0. 1.51515156e-02
      7.57575780e-03 2.27272734e-02 0. 3.78787890e-03 3.78787890e-03
      2.65151523e-02 3.78787890e-03 7.57575780e-03 1.89393945e-02
      1.89393945e-02 0. 0. 0. 3.78787890e-03 0. 0. 3.78787890e-03 0. 0.
      0. 0. 0. 0. 0. 0. 3.78787890e-03 0. 0. 0. 7.57575780e-03 0.
      7.57575780e-03 7.57575780e-03 3.40909101e-02 3.78787890e-03
      3.78787890e-03 7.57575780e-03 1.13636367e-02 0. 3.78787890e-03
      1.51515156e-02 3.78787890e-03 0. 3.78787890e-03 0. 0. 0.
      7.57575780e-03 7.57575780e-03 0. 0. 0. 0. 1.13636367e-02
      3.78787890e-03 3.78787890e-03 0. 7.57575780e-03 0. 0. 0.
      7.57575780e-03 0. 0. 1.51515156e-02 3.03030312e-02 7.57575780e-03
      1.13636367e-02 0. 2.27272734e-02 3.78787890e-03 0. 7.57575780e-03
      3.78787890e-03 0. 0. 0. 3.78787890e-03 0. 3.78787890e-03 0. 0. 0.
      3.78787890e-03 0. 0. 0. 3.78787890e-03 0. 0. 0. 0. 0.
      7.57575780e-03 0. 7.57575780e-03 3.78787890e-03 3.03030312e-02
      1.51515156e-02 1.51515156e-02 3.78787890e-03 1.13636367e-02
      7.57575780e-03 7.57575780e-03 2.27272734e-02 1.13636367e-02 0. 0.
      0. 3.78787890e-03 3.78787890e-03 1.13636367e-02 7.57575780e-03
      7.57575780e-03 0. 0. 0. 0. 0. 3.78787890e-03 0. 7.57575780e-03 0.
      0. 0. 1.89393945e-02 0. 0. 3.78787890e-03 4.16666679e-02
      7.57575780e-03 7.57575780e-03 0. 1.13636367e-02 0. 3.78787890e-03
      2.27272734e-02 0. 0. 0. 0. 1.13636367e-02 7.57575780e-03 0.
      3.78787890e-03 3.78787890e-03 0. 0. 3.78787890e-03 0. 0. 0. 0.
      3.78787890e-03 0. 0. 0. 3.78787890e-03 0. 0. 0. 4.16666679e-02
      1.51515156e-02 0. 0. 1.89393945e-02 0. 0. 3.78787890e-03 0. 0. 0.
      0. 0. 0. 0. 1.51515156e-02 7.57575780e-03 7.57575780e-03 0. 0. 0.
      0. 0. 0. 1.13636367e-02 3.78787890e-03 0. 0. 0. 0. 0.
      3.78787890e-03 3.40909101e-02 1.13636367e-02 0. 0. 0.
      3.78787890e-03 0. 7.57575780e-03 3.78787890e-03 0. 0. 0.
      3.78787890e-03 3.78787890e-03 3.78787890e-03 2.27272734e-02 0. 0.
      0. 0. 0. 0. 0. 0. 1.89393945e-02 0. 0. 0. 0. 3.78787890e-03
      1.13636367e-02 7.57575780e-03 3.40909101e-02 1.13636367e-02 0.
      3.78787890e-03 3.78787890e-03 0. 0. 1.13636367e-02 7.57575780e-03
      3.78787890e-03 0. 0. 1.13636367e-02 0. 7.57575780e-03
      4.16666679e-02 1.13636367e-02 3.78787890e-03 0. 0. 0. 0.
      3.78787890e-03 0. 3.78787890e-03 3.78787890e-03 0. 0.
      3.78787890e-03 0. 2.27272734e-02 7.57575780e-03 2.27272734e-02
      3.78787890e-03 7.57575780e-03 0. 3.78787890e-03 0. 7.57575780e-03
      1.13636367e-02 3.78787890e-03 0. 0. 0. 1.13636367e-02
      7.57575780e-03 3.78787890e-03 1.51515156e-02 3.78787890e-03 0.
      3.78787890e-03 0. 0. 0. 0. 0. 1.51515156e-02 3.78787890e-03 0. 0.
      3.78787890e-03 0. 1.13636367e-02 1.13636367e-02</_>
    <_>
      2.27272734e-02 7.57575780e-03 7.57575780e-03 3.78787890e-03
      2.27272734e-02 3.78787890e-03 3.78787890e-03 2.65151523e-02
      7.57575780e-03 0. 0. 3.78787890e-03 1.13636367e-02 0.
      1.13636367e-02 1.13636367e-02 3.78787890e-03 0. 0. 0. 0. 0. 0.
      7.57575780e-03 3.78787890e-03 0. 0. 3.78787890e-03 1.89393945e-02
      3.78787890e-03 3.78787890e-03 1.13636367e-02 3.03030312e-02
      1.13636367e-02 1.89393945e-02 1.13636367e-02 3.03030312e-02
      7.57575780e-03 7.57575780e-03 1.89393945e-02 3.78787890e-02
      3.78787890e-03 7.57575780e-03 7.57575780e-03 3.78787890e-03 0.
      4.54545468e-02 5.30303046e-02 3.78787890e-03 3.78787890e-03
      3.78787890e-03 3.78787890e-03 0. 0. 3.78787890e-03 7.57575780e-03
      1.13636367e-02 0. 1.13636367e-02 7.57575780e-03 4.16666679e-02
      3.78787890e-03 5.30303046e-02 4.54545468e-02 3.78787890e-02
      3.78787890e-03 2.27272734e-02 0. 3.03030312e-02 3.78787890e-03
      3.78787890e-03 1.89393945e-02 2.27272734e-02 0. 3.78787890e-02 0.
      1.13636367e-02 3.78787890e-03 2.65151523e-02 5.30303046e-02
      1.13636367e-02 0. 7.57575780e-03 0. 0. 3.78787890e-03
      3.78787890e-03 0. 3.78787890e-03 0. 1.13636367e-02 7.57575780e-03
      1.89393945e-02 1.13636367e-02 3.40909101e-02 3.78787890e-02
      4.54545468e-02 1.13636367e-02 1.51515156e-02 3.78787890e-03
      4.54545468e-02 7.57575780e-03 3.78787890e-03 3.78787890e-03
      3.78787890e-03 0. 3.78787890e-03 0. 1.13636367e-02 0.
      1.51515156e-02 1.89393945e-02 0. 0. 0. 0. 3.78787890e-03 0.
      3.78787890e-03 3.78787890e-03 3.78787890e-03 0. 7.57575780e-03
      3.78787890e-03 3.03030312e-02 3.78787890e-03 2.65151523e-02
      2.65151523e-02 1.51515156e-02 0. 0. 3.78787890e-03 3.03030312e-02
      0. 0. 2.27272734e-02 0. 0. 0. 0. 3.78787890e-03 0. 1.89393945e-02
      2.27272734e-02 3.78787890e-03 0. 0. 0. 0. 0. 0. 0. 7.57575780e-03
      0. 0. 0. 3.40909101e-02 0. 1.13636367e-02 1.89393945e-02
      5.30303046e-02 3.78787890e-03 3.78787890e-03 0. 2.27272734e-02
      3.78787890e-03 3.78787890e-03 3.78787890e-03 7.57575780e-03
      3.78787890e-03 3.78787890e-03 0. 1.13636367e-02 0. 1.89393945e-02
      3.78787890e-03 1.13636367e-02 3.78787890e-03 0. 0. 3.78787890e-03
      0. 0. 0. 3.78787890e-03 0. 3.78787890e-03 0. 7.57575780e-03 0.
      3.78787890e-03 1.51515156e-02 4.92424257e-02 7.57575780e-03
      3.78787890e-03 0. 3.78787890e-02 0. 7.57575780e-03 1.13636367e-02
      3.78787890e-03 0. 0. 0. 7.57575780e-03 3.78787890e-03
      7.57575780e-03 3.78787890e-03 0. 0. 0. 3.78787890e-03 0. 0.
      3.78787890e-03 0. 3.78787890e-03 3.78787890e-03 0. 3.78787890e-03
      1.51515156e-02 0. 1.13636367e-02 3.78787890e-03 4.16666679e-02
      3.78787890e-03 3.78787890e-03 1.51515156e-02 3.40909101e-02 0.
      2.27272734e-02 1.13636367e-02 3.78787890e-03 3.78787890e-03 0.
      3.78787890e-03 3.78787890e-03 0. 3.78787890e-03 3.78787890e-03
      1.51515156e-02 0. 3.78787890e-03 0. 3.78787890e-03 0. 0. 0.
      7.57575780e-03 3.78787890e-03 0. 0. 1.13636367e-02 0.
      3.78787890e-03 7.57575780e-03 1.89393945e-02 0. 0. 0.
      3.40909101e-02 0. 0. 3.78787890e-03 3.78787890e-03 0. 0. 0. 0. 0.
      3.78787890e-02 1.89393945e-02 0. 0. 0. 3.78787890e-03 0. 0. 0.
      3.78787890e-03 3.78787890e-03 0. 0. 0. 3.78787890e-03 0.
      1.89393945e-02 4.16666679e-02 4.16666679e-02 3.78787890e-03
      3.78787890e-03 7.57575780e-03 4.92424257e-02 0. 1.13636367e-02
      1.51515156e-02 3.78787890e-03 0. 0. 3.78787890e-03 1.13636367e-02
      0. 3.78787890e-03 3.78787890e-03 1.51515156e-02 3.78787890e-03 0.
      0. 0. 0. 0. 0. 7.57575780e-03 0. 0. 0. 1.13636367e-02 0.
      7.57575780e-03 1.13636367e-02 5.30303046e-02 0. 3.78787890e-03
      3.78787890e-03 4.16666679e-02 3.78787890e-03 3.78787890e-03
      1.89393945e-02 1.13636367e-02 3.78787890e-03 0. 3.78787890e-03
      3.78787890e-03 0. 3.78787890e-03 1.13636367e-02 3.78787890e-03 0.
      0. 3.78787890e-03 3.78787890e-03 0. 0. 0. 0. 0. 3.78787890e-03 0.
      0. 0. 3.78787890e-03 3.78787890e-03 5.30303046e-02 0. 0.
      7.57575780e-03 4.16666679e-02 0. 0. 7.57575780e-03 1.13636367e-02
      0. 0. 0. 0. 0. 7.57575780e-03 0. 0. 0. 0. 0. 3.78787890e-03 0.
      3.78787890e-03 0. 7.57575780e-03 0. 0. 0. 3.78787890e-03 0.
      3.78787890e-03 3.78787890e-03 2.27272734e-02 7.57575780e-03 0.
      3.78787890e-03 1.51515156e-02 0. 0. 3.78787890e-03 3.78787890e-03
      3.78787890e-03 0. 0. 3.78787890e-03 0. 3.78787890e-03
      1.89393945e-02 3.78787890e-03 3.78787890e-03 0. 0. 0. 0. 0.
      3.78787890e-03 0. 0. 0. 0. 7.57575780e-03 0. 3.78787890e-03
      7.57575780e-03 5.30303046e-02 7.57575780e-03 0. 3.78787890e-03
      5.30303046e-02 3.78787890e-03 7.57575780e-03 3.78787890e-03
      3.78787890e-03 0. 0. 0. 3.78787890e-03 3.78787890e-03
      7.57575780e-03 1.89393945e-02 7.57575780e-03 0. 0. 0.
      3.78787890e-03 0. 0. 0. 0. 0. 0. 0. 7.57575780e-03 0. 0.
      1.13636367e-02 6.06060624e-02 3.78787890e-03 3.78787890e-03 0.
      3.78787890e-03 7.57575780e-03 3.78787890e-03 7.57575780e-03 0.
      3.78787890e-03 3.78787890e-03 0. 3.78787890e-03 0. 0.
      1.13636367e-02 3.78787890e-03 0. 0. 0. 0. 0. 3.78787890e-03 0.
      3.78787890e-03 0. 7.57575780e-03 0. 3.78787890e-03 0.
      1.13636367e-02 2.27272734e-02 5.30303046e-02 3.78787890e-03 0.
      3.78787890e-03 3.03030312e-02 3.78787890e-03 0. 1.51515156e-02
      7.57575780e-03 0. 0. 0. 3.78787890e-03 0. 1.51515156e-02
      3.78787890e-03 7.57575780e-03 7.57575780e-03 0. 3.78787890e-03 0.
      0. 7.57575780e-03 0. 7.57575780e-03 0. 3.78787890e-03 0.
      3.78787890e-03 0. 1.51515156e-02 4.16666679e-02</_>
    <_>
      1.51515156e-02 0. 0. 1.13636367e-02 1.89393945e-02 0.
      1.13636367e-02 4.92424257e-02 7.57575780e-03 0. 0. 0. 0.
      3.78787890e-03 4.92424257e-02 7.19697028e-02 1.13636367e-02
      3.78787890e-03 0. 0. 3.78787890e-03 0. 0. 0. 3.78787890e-03 0. 0.
      0. 6.06060624e-02 0. 1.02272734e-01 3.03030312e-02 3.03030312e-02
      1.13636367e-02 0. 1.51515156e-02 7.57575780e-03 3.78787890e-03
      1.89393945e-02 4.54545468e-02 7.57575780e-03 0. 3.78787890e-03 0.
      7.57575780e-03 7.57575780e-03 2.65151523e-02 4.16666679e-02
      1.51515156e-02 3.78787890e-03 3.78787890e-03 0. 0. 0.
      3.78787890e-03 3.78787890e-03 3.78787890e-03 0. 0. 7.57575780e-03
      3.78787890e-02 3.78787890e-03 1.47727281e-01 4.16666679e-02
      1.89393945e-02 1.13636367e-02 3.78787890e-03 1.51515156e-02
      7.57575780e-03 3.78787890e-03 7.57575780e-03 4.16666679e-02
      3.78787890e-03 0. 0. 0. 1.13636367e-02 0. 3.03030312e-02
      1.40151516e-01 0. 7.57575780e-03 0. 3.78787890e-03 0. 0.
      3.78787890e-03 0. 2.27272734e-02 1.13636367e-02 0. 3.78787890e-03
      3.78787890e-02 0. 9.84848514e-02 1.89393945e-02 1.89393945e-02
      1.89393945e-02 3.78787890e-03 7.57575780e-03 1.89393945e-02
      3.78787890e-03 1.51515156e-02 4.54545468e-02 0. 3.78787890e-03 0.
      0. 3.40909101e-02 0. 3.03030312e-02 7.57575780e-02 3.03030312e-02
      1.13636367e-02 0. 0. 0. 0. 0. 0. 1.13636367e-02 3.78787890e-03 0.
      0. 2.27272734e-02 3.78787890e-03 7.19697028e-02 3.78787890e-02
      1.89393945e-02 3.78787890e-03 0. 7.57575780e-03 1.13636367e-02 0.
      0. 1.51515156e-02 1.51515156e-02 0. 0. 0. 3.78787890e-03
      7.57575780e-03 1.13636367e-02 1.13636367e-02 7.57575780e-03
      3.78787890e-03 0. 0. 0. 0. 3.78787890e-03 0. 1.13636367e-02 0. 0.
      3.78787890e-03 1.13636367e-02 0. 2.65151523e-02 1.13636367e-02
      1.89393945e-02 0. 0. 3.78787890e-03 3.03030312e-02 0. 0.
      3.78787890e-03 3.78787890e-03 0. 0. 0. 0. 0. 3.78787890e-03 0. 0.
      0. 0. 0. 3.78787890e-03 0. 0. 0. 0. 0. 0. 0. 3.78787890e-03 0.
      7.57575780e-03 0. 7.57575780e-03 0. 7.57575780e-03 7.57575780e-03
      4.92424257e-02 0. 1.51515156e-02 1.51515156e-02 0. 0. 0. 0.
      3.78787890e-03 0. 3.78787890e-03 3.78787890e-03 0. 0. 0. 0. 0. 0.
      3.78787890e-03 0. 0. 0. 0. 0. 3.78787890e-03 3.78787890e-03
      1.13636367e-02 0. 1.13636367e-02 0. 3.78787890e-03 3.78787890e-03
      1.89393945e-02 0. 7.57575780e-03 3.03030312e-02 3.78787890e-03 0.
      0. 3.78787890e-03 0. 3.78787890e-03 0. 2.65151523e-02
      7.57575780e-03 0. 0. 0. 3.78787890e-03 0. 0. 0. 3.78787890e-03 0.
      0. 0. 1.51515156e-02 0. 0. 3.78787890e-03 2.27272734e-02
      3.78787890e-03 7.57575780e-03 3.78787890e-03 7.57575780e-03 0.
      1.51515156e-02 0. 0. 0. 0. 0. 0. 0. 3.78787890e-03 0.
      1.89393945e-02 0. 0. 3.78787890e-03 0. 0. 0. 0. 0. 0. 0. 0.
      3.40909101e-02 0. 1.13636367e-02 7.57575780e-03 7.57575780e-03 0.
      0. 0. 4.16666679e-02 3.78787890e-03 1.13636367e-02 1.89393945e-02
      0. 0. 0. 0. 0. 0. 7.57575780e-03 3.78787890e-03 0. 0. 0. 0. 0. 0.
      0. 0. 3.78787890e-03 0. 0. 0. 7.57575780e-03 0. 1.13636367e-02
      7.57575780e-03 7.57575780e-03 0. 3.78787890e-03 3.78787890e-03
      4.16666679e-02 0. 1.13636367e-02 3.78787890e-03 0. 0. 0.
      3.78787890e-03 0. 3.78787890e-03 0. 3.78787890e-03 0. 0. 0. 0. 0.
      0. 0. 0. 0. 0. 0. 0. 1.13636367e-02 0. 0. 0. 2.65151523e-02
      3.78787890e-03 0. 0. 2.65151523e-02 3.78787890e-03 7.57575780e-03
      7.57575780e-03 0. 0. 0. 0. 0. 0. 3.78787890e-03 1.13636367e-02
      3.78787890e-03 0. 0. 0. 0. 0. 0. 0. 7.57575780e-03 0. 0. 0.
      1.13636367e-02 0. 2.27272734e-02 0. 3.03030312e-02 3.78787890e-03
      7.57575780e-03 3.78787890e-03 3.40909101e-02 0. 3.78787890e-03
      7.57575780e-03 0. 0. 0. 0. 7.57575780e-03 0. 0. 3.78787890e-03
      1.13636367e-02 0. 0. 0. 0. 0. 3.78787890e-03 0. 7.57575780e-03 0.
      0. 0. 7.57575780e-03 0. 3.03030312e-02 1.13636367e-02
      1.51515156e-02 7.57575780e-03 3.78787890e-03 3.78787890e-03
      7.57575780e-03 0. 3.78787890e-03 3.78787890e-03 1.13636367e-02 0.
      0. 0. 0. 0. 7.57575780e-03 1.13636367e-02 1.13636367e-02
      7.57575780e-03 0. 0. 7.57575780e-03 0. 0. 0. 7.57575780e-03 0. 0.
      0. 1.13636367e-02 0. 3.78787890e-03 7.57575780e-03 2.27272734e-02
      3.78787890e-03 3.78787890e-03 1.13636367e-02 1.13636367e-02 0.
      3.78787890e-03 2.27272734e-02 0. 0. 0. 0. 3.78787890e-03 0. 0.
      4.16666679e-02 2.65151523e-02 3.78787890e-03 0. 3.78787890e-03
      3.78787890e-03 0. 0. 0. 1.51515156e-02 0. 0. 3.78787890e-03 0. 0.
      1.89393945e-02 2.65151523e-02 1.13636367e-02 3.78787890e-03
      7.57575780e-03 3.78787890e-03 3.03030312e-02 0. 0. 7.57575780e-03
      7.57575780e-03 0. 0. 0. 1.13636367e-02 0. 0. 1.13636367e-02
      3.78787890e-03 3.78787890e-03 0. 0. 3.78787890e-03 0. 0. 0. 0. 0.
      0. 0. 7.57575780e-03 0. 1.13636367e-02 7.57575780e-03</_>
    <_>
      2.65151523e-02 1.51515156e-02 0. 1.89393945e-02 1.13636367e-02 0.
      3.78787890e-03 3.03030312e-02 3.78787890e-03 0. 0. 0.
      7.57575780e-03 3.78787890e-03 3.40909101e-02 7.19697028e-02
      1.13636367e-02 7.57575780e-03 0. 0. 3.78787890e-03 0.
      3.78787890e-03 0. 3.78787890e-03 0. 0. 0. 3.40909101e-02 0.
      6.43939376e-02 2.27272734e-02 1.51515156e-02 1.13636367e-02 0.
      1.89393945e-02 3.03030312e-02 0. 0. 3.03030312e-02 7.57575780e-03
      0. 0. 3.78787890e-03 3.78787890e-03 0. 3.03030312e-02
      6.06060624e-02 7.57575780e-03 7.57575780e-03 3.78787890e-03 0.
      3.78787890e-03 0. 3.78787890e-03 0. 3.78787890e-03 0. 0. 0.
      3.40909101e-02 0. 1.06060609e-01 3.40909101e-02 2.27272734e-02
      1.13636367e-02 3.78787890e-03 1.89393945e-02 7.57575780e-03 0.
      3.78787890e-03 4.92424257e-02 1.13636367e-02 3.78787890e-03 0.
      3.78787890e-03 1.13636367e-02 3.78787890e-03 4.54545468e-02
      1.02272734e-01 3.78787890e-03 0. 0. 0. 0. 0. 0. 3.78787890e-03
      1.13636367e-02 0. 0. 3.78787890e-03 1.89393945e-02 1.13636367e-02
      6.81818202e-02 2.27272734e-02 1.89393945e-02 5.68181835e-02 0.
      1.13636367e-02 0. 0. 3.78787890e-03 1.89393945e-02 0. 0. 0. 0.
      3.78787890e-03 3.78787890e-03 2.65151523e-02 1.25000000e-01
      5.68181835e-02 2.65151523e-02 0. 3.78787890e-03 0. 0. 0.
      3.78787890e-03 1.13636367e-02 0. 3.78787890e-03 0. 1.13636367e-02
      0. 3.40909101e-02 2.65151523e-02 3.78787890e-02 7.57575780e-03 0.
      2.27272734e-02 1.51515156e-02 3.78787890e-03 1.51515156e-02
      3.78787890e-03 0. 3.78787890e-03 0. 0. 7.57575780e-03 0.
      1.13636367e-02 3.78787890e-03 3.78787890e-03 3.78787890e-03 0. 0.
      3.78787890e-03 0. 0. 0. 1.13636367e-02 3.78787890e-03 0.
      3.78787890e-03 1.89393945e-02 0. 2.65151523e-02 2.27272734e-02
      2.27272734e-02 0. 7.57575780e-03 0. 1.13636367e-02 3.78787890e-03
      7.57575780e-03 1.51515156e-02 0. 3.78787890e-03 0. 3.78787890e-03
      3.78787890e-03 3.78787890e-03 7.57575780e-03 3.78787890e-03 0. 0.
      3.78787890e-03 0. 7.57575780e-03 0. 0. 0. 3.78787890e-03 0. 0. 0.
      2.65151523e-02 0. 1.51515156e-02 1.89393945e-02 2.65151523e-02 0.
      0. 7.57575780e-03 3.03030312e-02 0. 7.57575780e-03 3.78787890e-02
      0. 0. 0. 0. 1.51515156e-02 0. 3.78787890e-03 7.57575780e-03 0. 0.
      0. 3.78787890e-03 3.78787890e-03 0. 0. 0. 3.78787890e-03 0. 0. 0.
      1.89393945e-02 0. 0. 0. 2.65151523e-02 1.51515156e-02
      1.13636367e-02 1.89393945e-02 1.13636367e-02 3.78787890e-03
      7.57575780e-03 2.65151523e-02 3.78787890e-03 0. 0. 3.78787890e-03
      3.78787890e-03 0. 1.51515156e-02 6.43939376e-02 7.57575780e-03
      3.78787890e-03 0. 0. 3.78787890e-03 0. 3.78787890e-03
      7.57575780e-03 0. 7.57575780e-03 0. 0. 1.89393945e-02
      3.78787890e-03 3.03030312e-02 1.51515156e-02 3.03030312e-02 0. 0.
      3.78787890e-03 3.40909101e-02 0. 1.13636367e-02 7.57575780e-03 0.
      0. 0. 0. 3.78787890e-03 0. 3.78787890e-03 0. 0. 0. 0. 0. 0. 0. 0.
      0. 0. 0. 0. 0. 3.78787890e-03 0. 3.78787890e-03 3.78787890e-03
      3.03030312e-02 3.78787890e-03 0. 3.78787890e-03 1.89393945e-02 0.
      0. 1.13636367e-02 0. 0. 0. 0. 3.78787890e-03 0. 0. 3.78787890e-03
      7.57575780e-03 0. 0. 0. 0. 0. 0. 0. 0. 0. 0. 0. 3.78787890e-03 0.
      3.78787890e-03 7.57575780e-03 1.51515156e-02 0. 3.78787890e-03
      7.57575780e-03 3.40909101e-02 3.78787890e-03 3.78787890e-03 0. 0.
      0. 0. 0. 3.78787890e-03 0. 0. 0. 3.78787890e-03 0. 0. 0. 0. 0.
      3.78787890e-03 0. 0. 0. 0. 0. 1.13636367e-02 0. 7.57575780e-03 0.
      4.16666679e-02 7.57575780e-03 3.78787890e-03 0. 1.13636367e-02 0.
      0. 2.27272734e-02 7.57575780e-03 0. 0. 0. 0. 7.57575780e-03 0.
      1.51515156e-02 3.78787890e-03 0. 0. 0. 0. 0. 0. 0. 0.
      3.78787890e-03 0. 0. 7.57575780e-03 0. 1.51515156e-02 0.
      3.03030312e-02 3.78787890e-03 0. 3.78787890e-03 3.78787890e-03 0.
      7.57575780e-03 0. 3.78787890e-03 0. 0. 0. 0. 0. 3.78787890e-03
      3.78787890e-02 1.89393945e-02 3.78787890e-03 3.78787890e-03
      3.78787890e-03 0. 0. 0. 0. 3.78787890e-03 0. 0. 0. 7.57575780e-03
      0. 3.03030312e-02 1.13636367e-02 4.16666679e-02 1.13636367e-02 0.
      3.78787890e-03 7.57575780e-03 0. 3.78787890e-03 3.78787890e-03
      1.13636367e-02 0. 0. 3.78787890e-03 0. 0. 3.78787890e-03
      7.57575780e-03 7.57575780e-03 3.78787890e-03 3.78787890e-03 0. 0.
      0. 0. 0. 1.13636367e-02 0. 0. 0. 3.78787890e-03 0. 7.57575780e-03
      7.57575780e-03 3.78787890e-02 3.78787890e-03 3.78787890e-03
      1.13636367e-02 1.89393945e-02 3.78787890e-03 7.57575780e-03
      1.89393945e-02 3.78787890e-03 0. 0. 0. 7.57575780e-03 0.
      7.57575780e-03 6.43939376e-02 7.57575780e-03 7.57575780e-03 0.
      3.78787890e-03 3.78787890e-03 0. 0. 0. 0. 7.57575780e-03 0. 0.
      3.78787890e-03 0. 1.51515156e-02 2.27272734e-02 3.03030312e-02 0.
      3.78787890e-03 3.78787890e-03 1.13636367e-02 0. 3.78787890e-03
      1.89393945e-02 0. 0. 0. 0. 3.78787890e-03 0. 1.13636367e-02 0.
      3.78787890e-03 0. 0. 0. 0. 0. 0. 3.78787890e-03 0. 0. 0. 0.
      2.27272734e-02 3.78787890e-03 1.51515156e-02 0.</_>
    <_>
      2.27272734e-02 1.13636367e-02 3.78787890e-03 3.78787890e-03
      1.51515156e-02 3.78787890e-03 1.13636367e-02 4.16666679e-02
      3.78787890e-03 0. 0. 0. 1.89393945e-02 0. 3.40909101e-02
      7.57575780e-02 3.78787890e-03 0. 7.57575780e-03 7.57575780e-03
      3.78787890e-03 0. 0. 0. 7.57575780e-03 3.78787890e-03 0. 0.
      5.68181835e-02 0. 7.57575780e-03 3.03030312e-02 2.65151523e-02
      7.57575780e-03 3.78787890e-03 1.89393945e-02 3.78787890e-03
      3.78787890e-03 1.89393945e-02 3.78787890e-02 7.57575780e-03
      1.13636367e-02 0. 0. 1.89393945e-02 7.57575780e-03 3.78787890e-02
      6.43939376e-02 1.13636367e-02 0. 0. 7.57575780e-03 3.78787890e-03
      0. 3.78787890e-03 0. 7.57575780e-03 0. 0. 0. 5.30303046e-02 0.
      6.06060624e-02 3.78787890e-02 2.27272734e-02 1.89393945e-02
      1.13636367e-02 7.57575780e-03 7.57575780e-03 0. 3.78787890e-03
      3.40909101e-02 0. 0. 0. 0. 1.51515156e-02 7.57575780e-03
      3.78787890e-02 6.43939376e-02 2.27272734e-02 0. 0. 0.
      3.78787890e-03 0. 3.78787890e-03 0. 1.51515156e-02 0. 0.
      3.78787890e-03 6.81818202e-02 0. 6.06060624e-02 4.16666679e-02
      2.27272734e-02 1.51515156e-02 1.13636367e-02 1.13636367e-02
      1.51515156e-02 3.78787890e-03 1.13636367e-02 3.40909101e-02
      3.78787890e-03 0. 0. 0. 1.13636367e-02 3.78787890e-03
      3.40909101e-02 8.71212184e-02 1.89393945e-02 3.78787890e-03
      3.78787890e-03 0. 0. 0. 7.57575780e-03 0. 0. 0. 0. 0.
      2.65151523e-02 0. 1.25000000e-01 3.40909101e-02 4.54545468e-02
      1.13636367e-02 0. 3.78787890e-03 3.40909101e-02 0. 3.78787890e-03
      1.13636367e-02 0. 0. 0. 0. 0. 0. 7.57575780e-03 0. 7.57575780e-03
      0. 0. 0. 0. 0. 0. 0. 0. 0. 0. 0. 1.13636367e-02 0. 3.78787890e-03
      7.57575780e-03 1.89393945e-02 7.57575780e-03 3.78787890e-03
      7.57575780e-03 1.13636367e-02 0. 7.57575780e-03 3.78787890e-03 0.
      3.78787890e-03 0. 0. 0. 0. 0. 1.51515156e-02 3.78787890e-03
      3.78787890e-03 0. 0. 0. 0. 0. 0. 7.57575780e-03 0. 0. 0.
      7.57575780e-03 3.78787890e-03 0. 0. 2.27272734e-02 7.57575780e-03
      0. 0. 1.89393945e-02 0. 7.57575780e-03 1.51515156e-02
      1.13636367e-02 0. 0. 0. 3.78787890e-03 0. 0. 3.78787890e-03
      3.78787890e-03 0. 0. 0. 0. 0. 0. 0. 0. 0. 0. 0. 0. 0.
      7.57575780e-03 7.57575780e-03 3.40909101e-02 0. 7.57575780e-03 0.
      1.89393945e-02 3.78787890e-03 3.78787890e-03 1.89393945e-02 0. 0.
      0. 3.78787890e-03 3.78787890e-03 0. 7.57575780e-03 1.13636367e-02
      3.78787890e-03 0. 0. 0. 0. 0. 0. 0. 0. 0. 0. 0. 1.13636367e-02 0.
      7.57575780e-03 1.51515156e-02 5.68181835e-02 3.78787890e-03 0.
      3.78787890e-03 1.13636367e-02 0. 0. 2.65151523e-02 0. 0. 0. 0.
      1.51515156e-02 0. 1.51515156e-02 1.51515156e-02 7.57575780e-03
      3.78787890e-03 0. 0. 3.78787890e-03 0. 0. 0. 1.13636367e-02 0. 0.
      0. 3.78787890e-03 0. 1.13636367e-02 3.78787890e-03 3.40909101e-02
      3.78787890e-03 3.78787890e-03 0. 1.89393945e-02 0. 0.
      3.40909101e-02 7.57575780e-03 0. 0. 0. 1.51515156e-02 0.
      1.13636367e-02 1.51515156e-02 3.78787890e-03 0. 0. 0. 0. 0. 0. 0.
      1.13636367e-02 0. 0. 0. 1.13636367e-02 0. 0. 3.78787890e-03
      3.03030312e-02 3.78787890e-03 0. 0. 2.65151523e-02 3.78787890e-03
      0. 7.57575780e-03 1.13636367e-02 0. 0. 0. 1.13636367e-02 0. 0.
      1.13636367e-02 0. 0. 0. 0. 0. 0. 0. 0. 1.13636367e-02 0.
      3.78787890e-03 0. 7.57575780e-03 0. 0. 7.57575780e-03
      3.03030312e-02 0. 0. 3.78787890e-03 1.89393945e-02 2.27272734e-02
      0. 7.57575780e-03 7.57575780e-03 0. 0. 3.78787890e-03
      3.78787890e-03 0. 0. 2.27272734e-02 7.57575780e-03 7.57575780e-03
      0. 0. 0. 0. 0. 3.78787890e-03 1.51515156e-02 0. 3.78787890e-03 0.
      0. 0. 7.57575780e-03 7.57575780e-03 3.03030312e-02 0. 0. 0.
      1.51515156e-02 0. 7.57575780e-03 1.89393945e-02 3.78787890e-03 0.
      0. 0. 7.57575780e-03 0. 0. 3.78787890e-03 3.78787890e-03 0. 0. 0.
      0. 0. 0. 0. 1.13636367e-02 0. 0. 0. 7.57575780e-03 0. 0.
      3.78787890e-03 5.30303046e-02 3.78787890e-03 0. 3.78787890e-03
      3.78787890e-03 3.78787890e-03 7.57575780e-03 7.57575780e-03
      3.78787890e-03 3.78787890e-03 0. 0. 7.57575780e-03 0.
      3.78787890e-03 2.27272734e-02 1.51515156e-02 3.78787890e-03 0. 0.
      0. 0. 0. 0. 3.78787890e-03 0. 0. 0. 1.13636367e-02 0. 0.
      3.78787890e-03 4.54545468e-02 1.13636367e-02 7.57575780e-03 0.
      2.27272734e-02 0. 3.78787890e-03 0. 3.78787890e-03 0. 0. 0. 0. 0.
      0. 1.13636367e-02 7.57575780e-03 3.78787890e-03 0. 0. 0. 0.
      3.78787890e-03 0. 0. 0. 0. 3.78787890e-03 0. 0. 0. 7.57575780e-03
      4.54545468e-02 3.78787890e-03 3.78787890e-03 3.78787890e-03
      1.89393945e-02 0. 3.78787890e-03 1.13636367e-02 1.13636367e-02 0.
      0. 0. 3.78787890e-03 1.13636367e-02 0. 2.65151523e-02
      7.57575780e-03 0. 0. 0. 0. 0. 3.78787890e-03 0. 0. 0.
      3.78787890e-03 0. 1.13636367e-02 0. 1.13636367e-02 2.27272734e-02</_>
    <_>
      1.13636367e-02 0. 3.78787890e-03 0. 1.51515156e-02 0.
      7.57575780e-03 5.68181835e-02 0. 0. 0. 0. 1.51515156e-02 0.
      2.27272734e-02 1.51515156e-02 0. 0. 0. 0. 0. 0. 0. 0.
      3.78787890e-03 0. 0. 0. 4.54545468e-02 0. 3.40909101e-02
      1.13636367e-02 1.13636367e-02 1.89393945e-02 0. 7.57575780e-03 0.
      0. 1.51515156e-02 1.89393945e-02 0. 0. 0. 3.78787890e-03
      3.78787890e-03 0. 1.89393945e-02 4.54545468e-02 3.78787890e-03 0.
      0. 3.78787890e-03 0. 3.78787890e-03 3.78787890e-03 0. 0.
      3.78787890e-03 3.78787890e-03 0. 4.92424257e-02 0. 3.03030312e-02
      1.89393945e-02 1.13636367e-02 1.89393945e-02 0. 0. 3.78787890e-03
      0. 0. 2.27272734e-02 3.78787890e-03 0. 0. 0. 0. 3.78787890e-03
      4.16666679e-02 1.51515156e-01 5.68181835e-02 2.65151523e-02 0. 0.
      0. 0. 3.78787890e-03 0. 7.57575780e-03 0. 0. 0. 1.89393945e-02 0.
      5.68181835e-02 6.06060624e-02 7.57575780e-03 1.13636367e-02 0.
      7.57575780e-03 3.78787890e-03 3.78787890e-03 0. 4.16666679e-02 0.
      0. 0. 3.78787890e-03 3.78787890e-03 0. 1.51515156e-02
      2.68939406e-01 2.65151523e-02 3.78787890e-03 0. 0. 0. 0. 0.
      7.57575780e-03 7.57575780e-03 0. 0. 0. 3.78787890e-03 0.
      2.27272734e-02 2.65151523e-02 2.27272734e-02 0. 0. 0.
      2.65151523e-02 0. 3.78787890e-03 1.13636367e-02 3.78787890e-03 0.
      0. 0. 7.57575780e-03 0. 0. 3.78787890e-03 0. 0. 0. 0.
      3.78787890e-03 0. 0. 0. 0. 0. 0. 0. 1.13636367e-02 0. 0.
      3.78787890e-03 1.51515156e-02 3.78787890e-03 0. 3.78787890e-03
      7.57575780e-03 0. 7.57575780e-03 2.27272734e-02 0. 3.78787890e-03
      0. 0. 0. 3.78787890e-03 7.57575780e-03 4.92424257e-02
      3.78787890e-03 0. 0. 0. 3.78787890e-03 0. 0. 3.78787890e-03
      1.13636367e-02 0. 0. 0. 2.65151523e-02 7.57575780e-03
      7.57575780e-03 3.78787890e-03 7.57575780e-03 7.57575780e-03 0.
      7.57575780e-03 3.78787890e-03 3.78787890e-03 7.57575780e-03
      2.65151523e-02 3.78787890e-03 3.78787890e-03 0. 0. 3.78787890e-03
      0. 1.51515156e-02 1.89393945e-02 1.13636367e-02 3.78787890e-03 0.
      0. 0. 0. 3.78787890e-03 3.78787890e-03 1.13636367e-02 0. 0. 0.
      1.13636367e-02 0. 7.57575780e-03 1.13636367e-02 7.57575780e-03 0.
      0. 7.57575780e-03 3.03030312e-02 0. 1.51515156e-02 4.54545468e-02
      0. 0. 0. 0. 7.57575780e-03 0. 1.51515156e-02 2.27272734e-02 0. 0.
      0. 0. 3.78787890e-03 0. 0. 0. 0. 0. 0. 0. 4.92424257e-02 0.
      2.27272734e-02 7.57575780e-03 1.89393945e-02 3.78787890e-03 0. 0.
      2.27272734e-02 0. 0. 0. 0. 0. 0. 0. 3.78787890e-03 0. 0. 0. 0. 0.
      0. 0. 0. 0. 0. 0. 0. 0. 0. 0. 0. 0. 7.57575780e-03 0.
      1.51515156e-02 0. 0. 0. 0. 0. 0. 1.13636367e-02 3.78787890e-03 0.
      0. 0. 0. 3.78787890e-03 7.57575780e-03 7.57575780e-03
      3.78787890e-03 0. 0. 0. 0. 0. 0. 0. 3.78787890e-03 0. 0. 0.
      1.13636367e-02 0. 3.78787890e-03 0. 1.51515156e-02 7.57575780e-03
      3.78787890e-03 0. 1.13636367e-02 0. 3.78787890e-03 2.27272734e-02
      3.78787890e-03 0. 0. 0. 0. 0. 1.13636367e-02 2.27272734e-02
      1.51515156e-02 3.78787890e-03 0. 0. 3.78787890e-03 0. 0.
      3.78787890e-03 0. 0. 0. 3.78787890e-03 3.78787890e-03 0.
      1.13636367e-02 1.13636367e-02 2.27272734e-02 0. 0. 0.
      2.27272734e-02 0. 3.78787890e-03 0. 0. 0. 0. 0. 0. 0. 0. 0. 0. 0.
      0. 0. 0. 0. 0. 0. 0. 0. 0. 0. 0. 0. 0. 0. 1.51515156e-02
      2.27272734e-02 0. 1.13636367e-02 7.57575780e-03 0. 0. 0. 0. 0. 0.
      0. 0. 3.78787890e-03 3.03030312e-02 7.19697028e-02 1.51515156e-02
      1.13636367e-02 0. 0. 0. 0. 0. 0. 7.57575780e-03 0. 0. 0.
      7.57575780e-03 0. 7.57575780e-03 4.16666679e-02 1.13636367e-02
      3.78787890e-03 0. 0. 0. 0. 0. 3.78787890e-03 0. 0. 0. 0. 0.
      3.78787890e-03 1.89393945e-02 4.16666679e-02 1.51515156e-02 0. 0.
      0. 0. 0. 0. 0. 3.78787890e-03 0. 0. 0. 7.57575780e-03 0.
      2.65151523e-02 2.27272734e-02 1.89393945e-02 0. 0. 7.57575780e-03
      7.57575780e-03 0. 0. 1.51515156e-02 0. 0. 0. 0. 1.13636367e-02 0.
      3.78787890e-03 7.57575780e-03 1.13636367e-02 0. 0. 0.
      3.78787890e-03 0. 0. 0. 3.78787890e-03 0. 0. 0. 1.51515156e-02 0.
      2.27272734e-02 7.57575780e-03 2.27272734e-02 0. 0. 0. 0. 0.
      7.57575780e-03 0. 0. 0. 0. 0. 3.78787890e-03 0. 0. 0.
      7.57575780e-03 0. 0. 0. 3.78787890e-03 0. 0. 0. 0. 0. 0. 0.
      3.78787890e-03 0. 3.78787890e-03 0.</_>
    <_>
      7.57575780e-03 0. 3.78787890e-03 7.57575780e-03 2.65151523e-02
      3.78787890e-03 7.57575780e-03 0. 3.78787890e-03 0. 0. 0.
      3.78787890e-03 0. 3.78787890e-03 0. 0. 0. 0. 0. 0. 0. 0. 0. 0. 0.
      0. 0. 7.57575780e-03 0. 0. 3.78787890e-03 3.78787890e-03 0.
      1.51515156e-02 7.57575780e-03 1.51515156e-02 0. 1.89393945e-02 0.
      0. 0. 0. 0. 0. 0. 0. 0. 0. 0. 0. 0. 3.78787890e-03 0. 0. 0. 0. 0.
      0. 0. 1.51515156e-02 0. 3.78787890e-03 0. 7.57575780e-03 0.
      7.57575780e-03 1.51515156e-02 2.65151523e-02 0. 7.57575780e-03
      2.27272734e-02 0. 0. 0. 0. 0. 0. 3.78787890e-03 0. 0. 0. 0. 0.
      3.78787890e-03 0. 0. 0. 0. 0. 0. 0. 1.89393945e-02 0.
      7.57575780e-03 3.78787890e-03 3.40909101e-02 3.78787890e-03
      7.57575780e-03 7.57575780e-03 7.57575780e-03 0. 3.78787890e-03
      1.51515156e-02 0. 0. 0. 0. 1.89393945e-02 3.78787890e-03
      1.51515156e-02 1.89393945e-02 0. 0. 0. 0. 0. 0. 0. 0.
      3.78787890e-03 0. 0. 0. 1.89393945e-02 0. 6.43939376e-02
      1.51515156e-02 1.13636367e-02 3.78787890e-03 3.78787890e-03
      3.78787890e-03 1.13636367e-02 0. 0. 7.57575780e-03 0. 0. 0. 0.
      3.78787890e-03 0. 0. 0. 0. 0. 0. 0. 0. 3.78787890e-03 0. 0.
      3.78787890e-03 0. 0. 0. 7.57575780e-03 0. 1.89393945e-02
      1.13636367e-02 2.65151523e-02 0. 0. 3.78787890e-03 1.13636367e-02
      0. 0. 7.57575780e-03 0. 0. 0. 0. 3.78787890e-03 0. 3.78787890e-03
      0. 0. 0. 0. 3.78787890e-03 7.57575780e-03 0. 0. 0. 0. 0. 0. 0.
      1.13636367e-02 0. 3.78787890e-03 0. 1.89393945e-02 0. 0. 0.
      1.51515156e-02 0. 7.57575780e-03 7.57575780e-03 0. 0. 0. 0. 0. 0.
      3.78787890e-03 0. 0. 0. 0. 0. 0. 0. 0. 0. 0. 0. 0. 0. 0. 0.
      3.78787890e-03 0. 2.65151523e-02 3.78787890e-03 7.57575780e-03 0.
      1.13636367e-02 0. 7.57575780e-03 2.27272734e-02 0. 0. 0. 0. 0. 0.
      0. 3.78787890e-03 0. 0. 0. 0. 0. 0. 7.57575780e-03 0. 0. 0. 0. 0.
      4.16666679e-02 0. 7.19697028e-02 0. 1.89393945e-02 0. 0.
      7.57575780e-03 1.51515156e-02 0. 0. 7.57575780e-03 0. 0. 0. 0. 0.
      0. 7.57575780e-03 0. 0. 0. 0. 0. 3.78787890e-03 0. 0. 0. 0. 0. 0.
      0. 1.13636367e-02 3.78787890e-03 7.57575780e-03 1.13636367e-02
      7.57575780e-03 0. 1.51515156e-02 1.13636367e-02 7.57575780e-03 0.
      1.13636367e-02 0. 0. 0. 0. 0. 7.57575780e-03 0. 3.78787890e-03 0.
      0. 0. 0. 0. 0. 0. 3.78787890e-03 0. 0. 0. 0. 0. 1.51515156e-02 0.
      1.13636367e-02 0. 7.57575780e-03 0. 3.78787890e-03 1.51515156e-02
      1.13636367e-02 0. 7.57575780e-03 3.78787890e-03 0. 0. 0. 0.
      3.78787890e-03 0. 7.57575780e-03 3.78787890e-03 0. 0. 0. 0.
      7.57575780e-03 0. 3.78787890e-03 0. 0. 0. 0. 0. 3.78787890e-03 0.
      0. 0. 1.89393945e-02 3.78787890e-03 3.78787890e-03 1.13636367e-02
      3.78787890e-03 0. 3.78787890e-03 0. 0. 0. 0. 0. 0. 0. 0. 0.
      3.78787890e-03 0. 3.78787890e-03 0. 0. 0. 7.57575780e-03 0.
      3.78787890e-03 0. 3.78787890e-03 0. 2.65151523e-02 0.
      7.57575780e-02 3.78787890e-03 3.78787890e-03 3.78787890e-03
      3.78787890e-03 3.78787890e-03 3.78787890e-03 0. 1.13636367e-02
      7.57575780e-03 0. 0. 0. 0. 0. 0. 3.78787890e-03 2.27272734e-02
      3.78787890e-03 0. 0. 0. 0. 0. 0. 0. 3.78787890e-03 0. 0. 0.
      7.57575780e-03 0. 1.13636367e-02 7.57575780e-03 1.89393945e-02
      3.78787890e-03 0. 3.78787890e-03 0. 0. 3.78787890e-03
      3.78787890e-03 3.78787890e-03 0. 0. 0. 3.78787890e-03 0.
      7.57575780e-03 5.30303046e-02 1.51515156e-02 3.78787890e-03 0. 0.
      0. 0. 3.78787890e-03 0. 7.57575780e-03 0. 0. 0. 7.57575780e-03 0.
      7.19697028e-02 2.65151523e-02 1.51515156e-02 3.78787890e-03 0. 0.
      1.13636367e-02 0. 1.51515156e-02 3.78787890e-03 0. 0. 0. 0.
      1.13636367e-02 0. 7.57575780e-03 7.57575780e-03 7.57575780e-03
      3.78787890e-03 0. 0. 0. 0. 0. 0. 0. 0. 0. 0. 3.78787890e-03 0.
      3.78787890e-03 7.57575780e-03 2.27272734e-02 7.57575780e-03 0.
      1.13636367e-02 0. 0. 1.13636367e-02 1.13636367e-02 0. 0. 0. 0. 0.
      0. 1.89393945e-02 4.92424257e-02 7.57575780e-03 3.78787890e-03 0.
      0. 1.13636367e-02 0. 3.78787890e-03 0. 0. 0. 0. 0. 1.89393945e-02
      0. 6.81818202e-02 3.40909101e-02</_>
    <_>
      4.92424257e-02 3.40909101e-02 1.13636367e-02 7.57575780e-03
      7.57575780e-03 0. 1.13636367e-02 2.27272734e-02 1.51515156e-02 0.
      0. 3.78787890e-03 1.51515156e-02 2.27272734e-02 7.57575780e-03
      2.65151523e-02 2.27272734e-02 3.03030312e-02 3.78787890e-03 0.
      1.13636367e-02 3.78787890e-03 0. 3.78787890e-03 7.57575780e-03
      3.78787890e-03 7.57575780e-03 3.78787890e-03 1.13636367e-02 0.
      1.13636367e-02 1.13636367e-02 3.03030312e-02 6.81818202e-02
      3.78787890e-03 3.78787890e-03 7.57575780e-03 0. 3.78787890e-03
      2.27272734e-02 7.57575780e-03 3.78787890e-03 3.78787890e-03 0.
      1.13636367e-02 0. 5.30303046e-02 7.19697028e-02 1.51515156e-02
      7.57575780e-03 3.78787890e-03 0. 0. 0. 0. 3.78787890e-03
      1.51515156e-02 0. 7.57575780e-03 0. 3.03030312e-02 3.78787890e-03
      7.19697028e-02 9.46969688e-02 4.92424257e-02 2.65151523e-02 0.
      3.78787890e-03 7.57575780e-03 7.57575780e-03 7.57575780e-03
      1.13636367e-02 1.51515156e-02 0. 0. 7.57575780e-03 0. 0.
      3.40909101e-02 4.54545468e-02 4.92424257e-02 3.03030312e-02
      3.78787890e-03 3.78787890e-03 3.78787890e-03 0. 0. 7.57575780e-03
      7.57575780e-03 0. 0. 7.57575780e-03 3.40909101e-02 3.78787890e-03
      6.81818202e-02 5.68181835e-02 6.43939376e-02 1.89393945e-02
      1.13636367e-02 0. 3.78787890e-03 3.78787890e-03 3.78787890e-03
      1.13636367e-02 3.78787890e-03 3.78787890e-03 3.78787890e-03
      3.78787890e-03 7.57575780e-03 0. 7.57575780e-03 5.68181835e-02
      1.89393945e-02 1.13636367e-02 0. 7.57575780e-03 3.78787890e-03
      3.78787890e-03 0. 0. 1.51515156e-02 0. 0. 0. 1.51515156e-02 0.
      4.16666679e-02 2.65151523e-02 3.03030312e-02 1.13636367e-02
      1.51515156e-02 0. 1.89393945e-02 7.57575780e-03 3.78787890e-03
      7.57575780e-03 1.51515156e-02 0. 0. 0. 1.13636367e-02
      3.78787890e-03 0. 3.78787890e-03 3.78787890e-03 3.78787890e-03 0.
      0. 0. 0. 0. 0. 7.57575780e-03 0. 3.78787890e-03 0. 1.13636367e-02
      0. 3.78787890e-03 0. 4.16666679e-02 1.13636367e-02 0.
      3.78787890e-03 1.89393945e-02 7.57575780e-03 3.78787890e-03
      1.51515156e-02 3.78787890e-03 3.78787890e-03 3.78787890e-03 0.
      3.78787890e-03 0. 1.13636367e-02 7.57575780e-03 3.78787890e-03 0.
      0. 0. 7.57575780e-03 0. 0. 3.78787890e-03 3.78787890e-03 0. 0. 0.
      1.51515156e-02 7.57575780e-03 1.13636367e-02 1.51515156e-02
      4.54545468e-02 7.57575780e-03 0. 1.51515156e-02 7.57575780e-03
      3.78787890e-03 0. 2.65151523e-02 1.89393945e-02 0. 0.
      3.78787890e-03 3.78787890e-03 0. 0. 7.57575780e-03 7.57575780e-03
      0. 0. 0. 0. 0. 3.78787890e-03 3.78787890e-03 0. 0. 0.
      3.78787890e-03 3.78787890e-03 0. 0. 7.57575780e-03 6.06060624e-02
      7.57575780e-03 0. 7.57575780e-03 1.89393945e-02 3.78787890e-03 0.
      1.51515156e-02 0. 0. 0. 0. 3.78787890e-03 0. 3.78787890e-03
      3.78787890e-03 0. 3.78787890e-03 3.78787890e-03 3.78787890e-03
      7.57575780e-03 0. 0. 0. 7.57575780e-03 0. 0. 0. 3.78787890e-03 0.
      0. 0. 3.78787890e-02 0. 3.78787890e-03 3.78787890e-03
      4.16666679e-02 0. 3.78787890e-03 7.57575780e-03 7.57575780e-03 0.
      3.78787890e-03 0. 7.57575780e-03 7.57575780e-03 0. 1.13636367e-02
      3.78787890e-03 0. 0. 0. 0. 3.78787890e-03 0. 0. 0. 0. 0. 0.
      3.78787890e-03 0. 3.78787890e-03 7.57575780e-03 5.68181835e-02 0.
      0. 7.57575780e-03 3.78787890e-03 0. 0. 1.13636367e-02
      3.78787890e-03 0. 0. 0. 0. 0. 3.78787890e-03 0. 0. 0. 0. 0.
      3.78787890e-03 3.78787890e-03 0. 0. 1.13636367e-02 0.
      3.78787890e-03 0. 1.13636367e-02 0. 7.57575780e-03 7.57575780e-03
      6.43939376e-02 7.57575780e-03 0. 7.57575780e-03 2.27272734e-02
      3.78787890e-03 1.13636367e-02 3.78787890e-03 3.78787890e-03 0. 0.
      3.78787890e-03 0. 0. 0. 1.51515156e-02 7.57575780e-03 0. 0. 0.
      7.57575780e-03 0. 3.78787890e-03 0. 3.78787890e-03 0. 0. 0.
      7.57575780e-03 0. 3.78787890e-03 7.57575780e-03 4.92424257e-02
      7.57575780e-03 7.57575780e-03 1.13636367e-02 1.13636367e-02
      3.78787890e-03 7.57575780e-03 7.57575780e-03 1.89393945e-02 0. 0.
      0. 0. 3.78787890e-03 7.57575780e-03 3.40909101e-02 3.78787890e-03
      0. 0. 0. 3.78787890e-03 0. 3.78787890e-03 3.78787890e-03
      3.78787890e-03 3.78787890e-03 0. 0. 0. 0. 1.13636367e-02
      1.13636367e-02 4.92424257e-02 3.78787890e-03 3.78787890e-03 0.
      2.65151523e-02 0. 0. 1.51515156e-02 0. 0. 0. 0. 0. 0.
      2.27272734e-02 7.57575780e-03 0. 0. 0. 0. 0. 0. 0. 0.
      7.57575780e-03 0. 0. 0. 1.51515156e-02 0. 3.78787890e-03
      7.57575780e-03 5.30303046e-02 1.89393945e-02 3.78787890e-03
      3.78787890e-03 1.13636367e-02 3.78787890e-03 3.78787890e-03
      1.51515156e-02 0. 0. 0. 0. 0. 7.57575780e-03 1.13636367e-02
      1.51515156e-02 1.13636367e-02 0. 0. 3.78787890e-03 0.
      3.78787890e-03 0. 0. 1.13636367e-02 0. 3.78787890e-03
      3.78787890e-03 7.57575780e-03 0. 3.78787890e-03 3.78787890e-03
      4.92424257e-02 0. 7.57575780e-03 0. 7.57575780e-03 3.78787890e-03
      0. 0. 0. 0. 0. 0. 7.57575780e-03 0. 0. 7.57575780e-03
      7.57575780e-03 0. 0. 0. 0. 0. 0. 0. 0. 0. 0. 0. 0. 0. 0. 0.
      6.43939376e-02 0. 7.57575780e-03 7.57575780e-03 3.78787890e-03
      3.78787890e-03 3.78787890e-03 3.78787890e-03 3.78787890e-03 0. 0.
      0. 3.78787890e-03 0. 0. 1.13636367e-02 0. 0. 0. 0. 0. 0. 0.
      3.78787890e-03 3.78787890e-03 0. 7.57575780e-03 0. 3.78787890e-03
      3.78787890e-03 0. 3.78787890e-03</_>
    <_>
      4.16666679e-02 3.78787890e-03 1.13636367e-02 0. 1.89393945e-02
      3.78787890e-03 7.57575780e-03 2.65151523e-02 0. 3.78787890e-03 0.
      0. 7.57575780e-03 0. 2.65151523e-02 4.54545468e-02 1.13636367e-02
      3.78787890e-03 0. 0. 0. 0. 0. 3.78787890e-03 7.57575780e-03 0. 0.
      0. 3.40909101e-02 0. 2.65151523e-02 2.65151523e-02 4.16666679e-02
      7.57575780e-03 3.78787890e-03 3.78787890e-03 1.13636367e-02
      3.78787890e-03 7.57575780e-03 1.13636367e-02 3.78787890e-03
      7.57575780e-03 0. 0. 3.78787890e-03 1.13636367e-02 1.51515156e-02
      2.65151523e-02 1.13636367e-02 3.78787890e-03 0. 0. 3.78787890e-03
      0. 0. 0. 7.57575780e-03 0. 0. 0. 3.40909101e-02 0. 6.06060624e-02
      1.13636367e-02 4.16666679e-02 7.57575780e-03 0. 3.78787890e-03
      1.89393945e-02 1.13636367e-02 0. 2.27272734e-02 0. 0. 0. 0.
      1.51515156e-02 0. 3.03030312e-02 3.40909101e-02 0. 1.13636367e-02
      0. 0. 0. 0. 3.78787890e-03 0. 7.57575780e-03 0. 3.78787890e-03 0.
      1.13636367e-02 0. 4.54545468e-02 1.89393945e-02 2.27272734e-02
      3.78787890e-03 3.78787890e-03 3.78787890e-03 1.51515156e-02
      3.78787890e-03 1.13636367e-02 1.89393945e-02 7.57575780e-03 0. 0.
      0. 7.57575780e-03 0. 1.13636367e-02 4.54545468e-02 3.78787890e-03
      0. 0. 0. 0. 0. 0. 0. 3.78787890e-03 3.78787890e-03 0. 0.
      7.57575780e-03 0. 1.89393945e-02 7.57575780e-03 4.16666679e-02
      7.57575780e-03 0. 3.78787890e-03 3.40909101e-02 3.78787890e-03
      1.13636367e-02 3.40909101e-02 3.78787890e-03 0. 0. 3.78787890e-03
      1.13636367e-02 0. 1.51515156e-02 2.27272734e-02 3.78787890e-03
      3.78787890e-03 0. 3.78787890e-03 0. 0. 0. 0. 1.13636367e-02 0. 0.
      0. 7.57575780e-03 0. 3.78787890e-03 3.40909101e-02 5.68181835e-02
      7.57575780e-03 0. 0. 3.40909101e-02 0. 0. 1.13636367e-02
      3.78787890e-03 3.78787890e-03 0. 3.78787890e-03 7.57575780e-03 0.
      0. 2.27272734e-02 3.78787890e-03 0. 0. 0. 3.78787890e-03 0. 0. 0.
      3.78787890e-03 0. 3.78787890e-03 3.78787890e-03 1.13636367e-02 0.
      0. 3.78787890e-03 4.92424257e-02 7.57575780e-03 3.78787890e-03
      1.89393945e-02 3.03030312e-02 0. 3.78787890e-03 1.13636367e-02 0.
      0. 0. 0. 1.13636367e-02 0. 7.57575780e-03 1.89393945e-02 0. 0. 0.
      0. 0. 0. 0. 0. 0. 0. 0. 0. 0. 3.78787890e-03 7.57575780e-03
      1.51515156e-02 3.78787890e-02 0. 0. 0. 5.68181835e-02 0. 0.
      2.27272734e-02 3.78787890e-03 3.78787890e-03 0. 0. 1.89393945e-02
      0. 1.51515156e-02 3.78787890e-03 3.78787890e-03 3.78787890e-03 0.
      0. 0. 0. 0. 0. 0. 0. 0. 0. 3.78787890e-03 0. 1.89393945e-02
      1.89393945e-02 4.16666679e-02 0. 0. 3.78787890e-03 5.68181835e-02
      0. 0. 1.51515156e-02 0. 0. 0. 0. 3.78787890e-03 0. 3.78787890e-03
      3.78787890e-03 0. 0. 0. 0. 3.78787890e-03 0. 0. 0. 0. 0. 0. 0.
      3.78787890e-03 0. 0. 1.13636367e-02 5.30303046e-02 7.57575780e-03
      7.57575780e-03 7.57575780e-03 2.27272734e-02 0. 3.78787890e-03
      7.57575780e-03 0. 0. 0. 3.78787890e-03 1.13636367e-02 0. 0. 0.
      3.78787890e-03 0. 0. 0. 0. 0. 0. 0. 0. 0. 0. 0. 7.57575780e-03 0.
      3.78787890e-03 0. 2.27272734e-02 7.57575780e-03 0. 0.
      4.16666679e-02 0. 7.57575780e-03 3.03030312e-02 1.13636367e-02 0.
      0. 0. 3.78787890e-03 0. 0. 3.78787890e-03 3.78787890e-03 0. 0. 0.
      0. 0. 0. 0. 3.78787890e-03 0. 0. 0. 1.13636367e-02 0.
      3.78787890e-03 0. 1.89393945e-02 0. 0. 3.78787890e-03
      3.40909101e-02 3.78787890e-03 3.78787890e-03 1.13636367e-02
      3.78787890e-03 0. 0. 0. 3.78787890e-03 0. 0. 0. 0. 0. 0. 0. 0. 0.
      0. 0. 0. 0. 0. 0. 1.13636367e-02 0. 1.51515156e-02 3.78787890e-03
      3.78787890e-02 3.78787890e-03 0. 0. 2.27272734e-02 0. 0. 0.
      3.78787890e-03 0. 0. 0. 3.78787890e-03 0. 7.57575780e-03
      3.78787890e-03 1.51515156e-02 0. 0. 0. 0. 0. 0. 0. 7.57575780e-03
      0. 0. 0. 7.57575780e-03 0. 0. 3.78787890e-03 3.78787890e-02
      3.78787890e-03 0. 3.78787890e-03 1.51515156e-02 0. 7.57575780e-03
      2.27272734e-02 7.57575780e-03 0. 0. 0. 0. 0. 1.13636367e-02
      3.03030312e-02 7.57575780e-03 0. 0. 3.78787890e-03 0. 0. 0.
      3.78787890e-03 1.13636367e-02 0. 0. 3.78787890e-03 0.
      3.78787890e-03 1.51515156e-02 1.51515156e-02 2.65151523e-02
      1.13636367e-02 0. 7.57575780e-03 1.13636367e-02 0. 7.57575780e-03
      3.78787890e-03 0. 0. 3.78787890e-03 3.78787890e-03 7.57575780e-03
      0. 7.57575780e-03 2.27272734e-02 0. 0. 3.78787890e-03 0. 0. 0. 0.
      0. 3.78787890e-03 0. 0. 0. 0. 3.78787890e-03 0. 1.51515156e-02
      3.40909101e-02 1.13636367e-02 0. 3.78787890e-03 0. 3.78787890e-03
      0. 2.27272734e-02 7.57575780e-03 0. 0. 0. 1.51515156e-02 0.
      1.51515156e-02 1.89393945e-02 1.13636367e-02 1.13636367e-02 0. 0.
      0. 0. 0. 0. 3.78787890e-03 0. 0. 0. 7.57575780e-03 0.
      1.51515156e-02 2.27272734e-02</_>
    <_>
      5.30303046e-02 7.57575780e-03 7.57575780e-03 7.57575780e-03
      3.78787890e-02 0. 0. 2.27272734e-02 0. 0. 0. 0. 7.57575780e-03 0.
      7.57575780e-03 3.78787890e-03 7.57575780e-03 3.78787890e-03 0. 0.
      0. 0. 0. 0. 3.78787890e-03 0. 0. 3.78787890e-03 2.65151523e-02 0.
      2.65151523e-02 1.51515156e-02 4.16666679e-02 7.57575780e-03
      1.51515156e-02 7.57575780e-03 2.27272734e-02 1.13636367e-02
      1.51515156e-02 2.65151523e-02 2.65151523e-02 3.78787890e-03 0. 0.
      1.13636367e-02 7.57575780e-03 1.51515156e-02 6.06060624e-02
      7.57575780e-03 3.78787890e-03 0. 0. 0. 0. 0. 0. 7.57575780e-03 0.
      7.57575780e-03 0. 1.51515156e-02 3.78787890e-03 1.51515156e-02
      3.78787890e-03 6.06060624e-02 0. 3.78787890e-03 1.89393945e-02
      1.13636367e-02 0. 0. 1.89393945e-02 3.78787890e-03 0.
      3.78787890e-03 3.78787890e-03 1.13636367e-02 0. 3.03030312e-02
      5.30303046e-02 7.57575780e-03 3.78787890e-03 3.78787890e-03 0.
      1.13636367e-02 0. 3.78787890e-03 0. 3.78787890e-03 0. 0.
      3.78787890e-03 2.27272734e-02 3.78787890e-03 5.68181835e-02
      1.89393945e-02 5.30303046e-02 0. 3.78787890e-03 3.78787890e-03
      2.27272734e-02 0. 1.13636367e-02 2.27272734e-02 0. 7.57575780e-03
      0. 3.78787890e-03 3.78787890e-03 3.78787890e-03 2.65151523e-02
      7.57575780e-03 7.57575780e-03 0. 7.57575780e-03 0. 0. 0.
      3.78787890e-03 3.78787890e-03 3.78787890e-03 0. 0. 0.
      2.27272734e-02 3.78787890e-03 1.89393945e-02 2.27272734e-02
      4.16666679e-02 1.13636367e-02 3.78787890e-03 7.57575780e-03
      4.16666679e-02 3.78787890e-03 1.51515156e-02 1.89393945e-02
      7.57575780e-03 0. 0. 0. 7.57575780e-03 0. 3.78787890e-03
      3.78787890e-03 1.13636367e-02 0. 0. 3.78787890e-03 0. 0. 0. 0.
      3.78787890e-03 0. 0. 0. 1.89393945e-02 0. 7.57575780e-03 0.
      6.06060624e-02 1.51515156e-02 0. 3.78787890e-03 1.13636367e-02
      3.78787890e-03 3.78787890e-03 1.13636367e-02 0. 0. 3.78787890e-03
      0. 3.78787890e-03 0. 1.51515156e-02 1.13636367e-02 3.78787890e-03
      0. 0. 0. 3.78787890e-03 0. 0. 0. 3.78787890e-03 3.78787890e-03
      7.57575780e-03 0. 1.13636367e-02 0. 1.51515156e-02 1.13636367e-02
      6.43939376e-02 1.13636367e-02 3.78787890e-03 0. 1.13636367e-02
      1.51515156e-02 0. 1.51515156e-02 1.13636367e-02 0. 0. 0.
      3.78787890e-03 1.13636367e-02 3.78787890e-03 3.03030312e-02 0. 0.
      3.78787890e-03 0. 0. 0. 0. 3.78787890e-03 1.13636367e-02
      3.78787890e-03 3.78787890e-03 0. 1.13636367e-02 0. 1.51515156e-02
      1.51515156e-02 3.03030312e-02 0. 0. 3.78787890e-03 5.30303046e-02
      0. 7.57575780e-03 1.89393945e-02 0. 0. 0. 3.78787890e-03
      3.78787890e-03 0. 7.57575780e-03 2.27272734e-02 7.57575780e-03 0.
      0. 7.57575780e-03 0. 0. 3.78787890e-03 0. 3.78787890e-03 0. 0. 0.
      7.57575780e-03 0. 2.27272734e-02 0. 5.68181835e-02 7.57575780e-03
      3.78787890e-03 3.78787890e-03 2.65151523e-02 7.57575780e-03
      3.78787890e-03 0. 3.78787890e-03 0. 0. 0. 7.57575780e-03
      3.78787890e-03 0. 0. 3.78787890e-03 7.57575780e-03 3.78787890e-03
      0. 3.78787890e-03 0. 0. 0. 3.78787890e-03 0. 0. 3.78787890e-03
      3.78787890e-03 0. 3.78787890e-03 1.13636367e-02 3.03030312e-02
      1.13636367e-02 7.57575780e-03 3.78787890e-03 2.65151523e-02 0. 0.
      1.51515156e-02 0. 3.78787890e-03 0. 3.78787890e-03 1.89393945e-02
      0. 3.78787890e-03 3.78787890e-03 7.57575780e-03 0. 0.
      3.78787890e-03 0. 3.78787890e-03 3.78787890e-03 0. 0. 0.
      3.78787890e-03 0. 7.57575780e-03 0. 0. 3.78787890e-03
      4.16666679e-02 7.57575780e-03 7.57575780e-03 1.89393945e-02
      7.57575780e-03 3.78787890e-03 3.78787890e-03 1.51515156e-02
      7.57575780e-03 3.78787890e-03 0. 0. 2.27272734e-02 0.
      7.57575780e-03 0. 7.57575780e-03 0. 3.78787890e-03 0.
      3.78787890e-03 0. 7.57575780e-03 0. 1.13636367e-02 3.78787890e-03
      3.78787890e-03 3.78787890e-03 1.13636367e-02 0. 7.57575780e-03
      7.57575780e-03 4.54545468e-02 0. 7.57575780e-03 0. 3.78787890e-02
      7.57575780e-03 1.13636367e-02 1.13636367e-02 7.57575780e-03
      3.78787890e-03 3.78787890e-03 3.78787890e-03 7.57575780e-03 0.
      7.57575780e-03 0. 0. 0. 0. 0. 0. 0. 0. 3.78787890e-03 0. 0.
      3.78787890e-03 0. 7.57575780e-03 0. 0. 3.78787890e-03
      6.43939376e-02 1.13636367e-02 3.78787890e-03 0. 2.65151523e-02 0.
      0. 3.78787890e-03 0. 0. 0. 0. 3.78787890e-03 0. 3.78787890e-03
      1.51515156e-02 0. 7.57575780e-03 0. 0. 0. 0. 0. 0. 7.57575780e-03
      0. 3.78787890e-03 0. 0. 0. 1.13636367e-02 1.13636367e-02
      4.54545468e-02 7.57575780e-03 7.57575780e-03 7.57575780e-03
      1.13636367e-02 0. 7.57575780e-03 7.57575780e-03 0. 3.78787890e-03
      0. 0. 7.57575780e-03 0. 0. 3.78787890e-03 1.51515156e-02 0. 0.
      7.57575780e-03 0. 0. 0. 0. 0. 0. 0. 0. 3.78787890e-03 0.
      1.13636367e-02 7.57575780e-03 6.81818202e-02 3.78787890e-03
      1.13636367e-02 0. 1.13636367e-02 0. 1.13636367e-02 0.
      3.78787890e-03 3.78787890e-03 7.57575780e-03 0. 3.78787890e-03
      7.57575780e-03 3.78787890e-03 1.89393945e-02 1.51515156e-02
      3.78787890e-03 3.78787890e-03 0. 0. 0. 0. 0. 0. 0. 0. 0.
      7.57575780e-03 0. 1.51515156e-02 1.89393945e-02 5.30303046e-02
      1.89393945e-02 1.51515156e-02 3.78787890e-03 1.89393945e-02 0.
      1.13636367e-02 0. 0. 0. 3.78787890e-03 3.78787890e-03 0. 0.
      3.78787890e-03 1.51515156e-02 3.78787890e-03 3.78787890e-03
      3.78787890e-03 3.78787890e-03 7.57575780e-03 0. 3.78787890e-03
      3.78787890e-03 3.78787890e-03 3.78787890e-03 0. 0. 7.57575780e-03
      0. 1.51515156e-02 7.57575780e-03</_>
    <_>
      0. 3.78787890e-03 0. 3.78787890e-03 3.78787890e-03 0. 0.
      4.54545468e-02 3.78787890e-03 0. 0. 0. 7.57575780e-03
      3.78787890e-03 4.16666679e-02 3.40909101e-02 3.78787890e-03 0. 0.
      0. 0. 0. 0. 0. 3.78787890e-03 3.78787890e-03 0. 0. 2.65151523e-02
      3.78787890e-03 3.03030312e-02 1.89393945e-02 3.78787890e-03
      7.57575780e-03 0. 7.57575780e-03 0. 0. 3.78787890e-03
      4.16666679e-02 0. 0. 0. 0. 0. 0. 1.51515156e-02 8.71212184e-02 0.
      0. 0. 0. 3.78787890e-03 0. 3.78787890e-03 0. 1.13636367e-02 0. 0.
      3.78787890e-03 4.54545468e-02 3.78787890e-03 9.84848514e-02
      2.27272734e-02 3.78787890e-03 0. 0. 3.78787890e-03 1.13636367e-02
      0. 1.51515156e-02 6.06060624e-02 0. 0. 0. 0. 3.78787890e-03 0.
      4.16666679e-02 3.40909101e-02 0. 0. 0. 0. 0. 0. 0. 0.
      3.78787890e-03 0. 0. 0. 3.78787890e-02 0. 1.32575765e-01
      3.40909101e-02 3.78787890e-03 0. 0. 0. 7.57575780e-03 0.
      1.13636367e-02 4.92424257e-02 0. 0. 0. 0. 3.78787890e-03 0.
      1.89393945e-02 4.92424257e-02 3.78787890e-03 0. 0. 0. 0. 0. 0. 0.
      0. 0. 0. 0. 4.54545468e-02 0. 1.06060609e-01 3.03030312e-02 0. 0.
      0. 3.78787890e-03 3.78787890e-03 0. 2.27272734e-02 7.57575780e-03
      0. 0. 0. 0. 3.78787890e-03 0. 1.13636367e-02 0. 0. 0. 0. 0. 0. 0.
      0. 0. 0. 0. 0. 0. 2.65151523e-02 0. 3.78787890e-03 1.13636367e-02
      7.57575780e-03 0. 3.78787890e-03 1.13636367e-02 0. 0.
      3.78787890e-03 1.13636367e-02 0. 0. 0. 0. 0. 0. 7.57575780e-03
      7.57575780e-03 3.78787890e-03 0. 0. 0. 0. 0. 0. 0. 0. 0. 0. 0.
      3.03030312e-02 0. 4.92424257e-02 1.13636367e-02 1.13636367e-02
      7.57575780e-03 0. 3.78787890e-03 3.78787890e-03 0. 3.78787890e-03
      3.78787890e-02 0. 0. 0. 0. 3.78787890e-03 0. 2.65151523e-02
      3.03030312e-02 3.78787890e-03 0. 0. 0. 0. 0. 0. 0. 3.78787890e-03
      0. 0. 0. 5.30303046e-02 0. 2.27272734e-02 3.78787890e-03
      3.78787890e-03 0. 0. 0. 0. 0. 0. 1.13636367e-02 0. 0. 0. 0. 0. 0.
      1.13636367e-02 1.13636367e-02 0. 0. 0. 0. 0. 0. 0. 0. 0. 0. 0. 0.
      1.89393945e-02 0. 1.13636367e-02 7.57575780e-03 0. 0. 0.
      7.57575780e-03 3.78787890e-03 0. 3.78787890e-03 1.51515156e-02 0.
      0. 0. 0. 7.57575780e-03 0. 1.13636367e-02 2.27272734e-02 0. 0. 0.
      0. 3.78787890e-03 0. 0. 0. 0. 0. 0. 0. 5.30303046e-02 0.
      1.89393945e-02 7.57575780e-03 7.57575780e-03 0. 0. 0.
      3.78787890e-03 0. 1.13636367e-02 2.65151523e-02 3.78787890e-03 0.
      0. 0. 7.57575780e-03 3.78787890e-03 3.03030312e-02 3.78787890e-03
      0. 0. 0. 0. 0. 0. 0. 0. 3.78787890e-03 0. 0. 0. 3.40909101e-02 0.
      4.54545468e-02 2.65151523e-02 7.57575780e-03 3.78787890e-03 0.
      3.78787890e-03 7.57575780e-03 0. 3.78787890e-03 3.40909101e-02 0.
      0. 0. 0. 7.57575780e-03 0. 1.13636367e-02 0. 3.78787890e-03 0. 0.
      0. 0. 0. 0. 0. 0. 0. 0. 0. 1.89393945e-02 0. 1.13636367e-02
      3.78787890e-03 1.13636367e-02 0. 3.78787890e-03 7.57575780e-03
      3.78787890e-03 0. 7.57575780e-03 1.89393945e-02 0. 0. 0. 0. 0. 0.
      7.57575780e-03 0. 3.78787890e-03 0. 0. 0. 0. 0. 0. 0.
      3.78787890e-03 0. 0. 0. 3.40909101e-02 0. 1.89393945e-02
      3.78787890e-03 1.51515156e-02 3.78787890e-03 0. 0. 0. 0.
      3.78787890e-03 1.89393945e-02 0. 0. 0. 0. 3.78787890e-03 0.
      7.57575780e-03 3.03030312e-02 7.57575780e-03 0. 0. 0. 0. 0.
      3.78787890e-03 0. 3.78787890e-03 0. 0. 0. 1.51515156e-02 0.
      3.03030312e-02 2.65151523e-02 3.78787890e-03 3.78787890e-03 0. 0.
      0. 0. 7.57575780e-03 1.51515156e-02 0. 0. 0. 0. 0. 0.
      1.13636367e-02 7.57575780e-03 3.78787890e-03 0. 0. 3.78787890e-03
      0. 0. 0. 0. 0. 0. 0. 0. 7.57575780e-03 3.78787890e-03
      7.57575780e-03 3.78787890e-03 7.57575780e-03 1.13636367e-02
      3.78787890e-03 0. 7.57575780e-03 0. 7.57575780e-03 3.78787890e-03
      0. 0. 0. 0. 0. 0. 3.78787890e-03 1.51515156e-02 3.78787890e-03
      3.78787890e-03 0. 0. 0. 0. 0. 0. 0. 0. 0. 0. 3.40909101e-02 0.
      4.54545468e-02 1.13636367e-02 7.57575780e-03 0. 0. 0.
      2.27272734e-02 0. 7.57575780e-03 1.89393945e-02 0. 0. 0. 0. 0. 0.
      3.78787890e-03 0. 0. 0. 0. 0. 0. 0. 0. 0. 0. 0. 0. 0.
      1.89393945e-02 0. 3.78787890e-03 3.78787890e-03</_>
    <_>
      3.03030312e-02 2.65151523e-02 3.78787890e-03 7.57575780e-03
      1.13636367e-02 0. 3.78787890e-03 2.65151523e-02 0. 0. 0. 0.
      3.78787890e-03 0. 7.57575780e-03 2.27272734e-02 3.78787890e-03
      7.57575780e-03 0. 0. 3.78787890e-03 0. 0. 0. 1.13636367e-02 0.
      3.78787890e-03 0. 2.27272734e-02 0. 1.13636367e-02 7.57575780e-03
      3.40909101e-02 2.27272734e-02 3.78787890e-03 7.57575780e-03
      7.57575780e-03 0. 7.57575780e-03 1.13636367e-02 7.57575780e-03 0.
      0. 0. 7.57575780e-03 0. 1.13636367e-02 1.89393945e-02
      1.13636367e-02 3.78787890e-03 0. 0. 3.78787890e-03 0.
      7.57575780e-03 3.78787890e-03 7.57575780e-03 0. 0. 0.
      1.89393945e-02 3.78787890e-03 1.51515156e-02 2.27272734e-02
      2.65151523e-02 3.78787890e-03 7.57575780e-03 3.78787890e-03
      2.27272734e-02 0. 1.13636367e-02 3.03030312e-02 7.57575780e-03 0.
      0. 0. 0. 3.78787890e-03 1.89393945e-02 1.13636367e-02
      7.57575780e-03 0. 0. 0. 0. 0. 0. 0. 7.57575780e-03 7.57575780e-03
      0. 0. 3.40909101e-02 3.78787890e-03 2.27272734e-02 1.51515156e-02
      2.27272734e-02 7.57575780e-03 0. 3.78787890e-03 2.65151523e-02
      3.78787890e-03 1.51515156e-02 2.27272734e-02 7.57575780e-03
      3.78787890e-03 0. 0. 7.57575780e-03 3.78787890e-03 1.13636367e-02
      2.27272734e-02 7.57575780e-03 0. 0. 0. 0. 0. 0. 0. 0. 0. 0. 0.
      4.54545468e-02 0. 3.03030312e-02 7.57575780e-03 3.40909101e-02 0.
      0. 3.78787890e-03 1.13636367e-02 0. 3.78787890e-03 1.51515156e-02
      3.78787890e-03 0. 0. 0. 0. 3.78787890e-03 2.65151523e-02
      3.40909101e-02 1.89393945e-02 3.78787890e-03 0. 0. 0. 0. 0. 0.
      1.13636367e-02 0. 0. 0. 1.51515156e-02 3.78787890e-03
      2.65151523e-02 1.89393945e-02 1.89393945e-02 1.51515156e-02 0.
      7.57575780e-03 1.13636367e-02 0. 7.57575780e-03 3.78787890e-02 0.
      0. 0. 0. 1.51515156e-02 0. 1.89393945e-02 2.65151523e-02 0. 0. 0.
      0. 0. 0. 3.78787890e-03 0. 1.13636367e-02 0. 0. 0. 1.89393945e-02
      0. 2.65151523e-02 7.57575780e-03 1.89393945e-02 0. 0.
      3.78787890e-03 2.27272734e-02 0. 3.78787890e-03 1.51515156e-02 0.
      0. 0. 0. 1.51515156e-02 0. 1.13636367e-02 3.03030312e-02 0. 0. 0.
      0. 0. 0. 3.78787890e-03 0. 7.57575780e-03 0. 0. 0. 1.13636367e-02
      0. 7.57575780e-03 1.13636367e-02 7.57575780e-03 0. 0. 0.
      4.54545468e-02 0. 1.89393945e-02 3.78787890e-03 0. 0. 0.
      3.78787890e-03 7.57575780e-03 0. 3.78787890e-03 3.78787890e-03 0.
      0. 0. 0. 0. 0. 0. 0. 0. 0. 0. 0. 0. 0. 0. 0. 3.40909101e-02
      1.89393945e-02 0. 0. 2.65151523e-02 0. 3.78787890e-03
      1.51515156e-02 7.57575780e-03 0. 0. 3.78787890e-03 3.78787890e-03
      0. 7.57575780e-03 2.27272734e-02 3.78787890e-03 0. 0.
      3.78787890e-03 0. 0. 0. 3.78787890e-03 0. 3.78787890e-03 0. 0.
      2.27272734e-02 0. 3.78787890e-03 3.78787890e-03 2.65151523e-02
      1.13636367e-02 0. 0. 1.13636367e-02 0. 1.89393945e-02
      2.27272734e-02 3.78787890e-03 0. 0. 0. 0. 0. 0. 1.89393945e-02
      7.57575780e-03 7.57575780e-03 0. 3.78787890e-03 0. 0. 0.
      3.78787890e-03 0. 0. 0. 0. 3.40909101e-02 0. 1.51515156e-02
      1.51515156e-02 4.54545468e-02 0. 0. 1.13636367e-02 3.40909101e-02
      7.57575780e-03 3.78787890e-03 3.78787890e-03 3.78787890e-03 0. 0.
      0. 0. 0. 0. 0. 0. 0. 0. 0. 0. 0. 0. 0. 0. 0. 0. 0. 7.57575780e-03
      0. 0. 0. 2.27272734e-02 0. 0. 0. 3.40909101e-02 0. 3.78787890e-03
      0. 0. 0. 0. 0. 0. 0. 0. 0. 0. 0. 0. 3.78787890e-03 0. 0. 0. 0. 0.
      0. 0. 0. 7.57575780e-03 0. 0. 0. 2.27272734e-02 1.13636367e-02
      1.13636367e-02 3.78787890e-03 7.57575780e-03 0. 1.13636367e-02
      7.57575780e-03 0. 0. 0. 0. 0. 0. 1.51515156e-02 1.13636367e-02
      3.78787890e-03 7.57575780e-03 0. 3.78787890e-03 3.78787890e-03
      3.78787890e-03 0. 0. 1.51515156e-02 0. 0. 0. 1.89393945e-02 0.
      2.27272734e-02 1.89393945e-02 1.89393945e-02 7.57575780e-03
      3.78787890e-03 1.13636367e-02 0. 3.78787890e-03 7.57575780e-03
      1.13636367e-02 3.78787890e-03 0. 0. 0. 0. 0. 1.89393945e-02
      3.03030312e-02 1.89393945e-02 0. 0. 0. 0. 0. 0. 0. 3.78787890e-03
      0. 0. 0. 3.78787890e-03 0. 2.65151523e-02 3.03030312e-02
      3.40909101e-02 1.89393945e-02 7.57575780e-03 3.78787890e-03
      1.13636367e-02 3.78787890e-03 7.57575780e-03 1.13636367e-02
      3.78787890e-03 3.78787890e-03 0. 0. 1.13636367e-02 0.
      1.89393945e-02 3.40909101e-02 1.51515156e-02 3.78787890e-03 0.
      3.78787890e-03 0. 0. 0. 0. 7.57575780e-03 3.78787890e-03 0. 0.
      3.78787890e-03 0. 3.78787890e-02 3.03030312e-02 3.78787890e-02
      3.78787890e-03 3.78787890e-03 0. 1.89393945e-02 0. 3.78787890e-03
      7.57575780e-03 7.57575780e-03 0. 0. 0. 7.57575780e-03 0.
      3.78787890e-03 2.65151523e-02 1.13636367e-02 0. 0. 0.
      3.78787890e-03 0. 0. 0. 7.57575780e-03 0. 3.78787890e-03 0.
      1.13636367e-02 0. 2.27272734e-02 2.27272734e-02</_>
    <_>
      1.13636367e-02 0. 0. 3.78787890e-03 2.65151523e-02 0.
      1.51515156e-02 4.92424257e-02 0. 0. 0. 0. 7.57575780e-03 0.
      1.51515156e-02 3.03030312e-02 0. 0. 0. 0. 3.78787890e-03 0. 0. 0.
      0. 0. 0. 0. 4.92424257e-02 0. 4.54545468e-02 3.78787890e-03
      1.13636367e-02 3.78787890e-03 3.78787890e-03 7.57575780e-03
      3.78787890e-03 0. 3.78787890e-03 2.65151523e-02 0. 0. 0. 0.
      3.78787890e-03 0. 3.40909101e-02 3.03030312e-02 3.78787890e-03 0.
      0. 0. 3.78787890e-03 0. 0. 0. 0. 7.57575780e-03 0. 3.78787890e-03
      3.78787890e-02 0. 4.92424257e-02 3.03030312e-02 1.51515156e-02
      1.51515156e-02 3.78787890e-03 3.78787890e-03 0. 0. 0.
      1.51515156e-02 0. 7.57575780e-03 0. 0. 3.78787890e-03
      3.78787890e-03 4.16666679e-02 1.47727281e-01 4.54545468e-02
      3.03030312e-02 0. 0. 0. 0. 3.78787890e-03 0. 3.78787890e-03 0. 0.
      0. 1.89393945e-02 3.78787890e-03 7.95454532e-02 4.16666679e-02
      7.57575780e-03 1.89393945e-02 0. 1.13636367e-02 0. 7.57575780e-03
      0. 2.27272734e-02 3.78787890e-03 0. 0. 0. 3.78787890e-03
      3.78787890e-03 1.89393945e-02 2.91666687e-01 2.65151523e-02
      1.13636367e-02 0. 0. 0. 0. 0. 3.78787890e-03 7.57575780e-03 0. 0.
      0. 3.78787890e-03 0. 3.78787890e-03 3.78787890e-02 1.89393945e-02
      0. 0. 3.78787890e-03 3.78787890e-02 0. 1.13636367e-02
      1.89393945e-02 0. 0. 0. 0. 0. 0. 3.78787890e-03 3.78787890e-03 0.
      0. 0. 0. 0. 0. 0. 0. 0. 0. 0. 0. 3.03030312e-02 0. 0.
      3.78787890e-03 1.89393945e-02 3.78787890e-03 0. 0. 0. 0.
      3.78787890e-03 3.78787890e-02 0. 3.78787890e-03 0. 0.
      7.57575780e-03 0. 1.13636367e-02 5.30303046e-02 3.78787890e-03 0.
      0. 3.78787890e-03 3.78787890e-03 0. 0. 0. 7.57575780e-03 0. 0. 0.
      2.27272734e-02 0. 1.51515156e-02 1.13636367e-02 1.89393945e-02
      1.51515156e-02 0. 0. 7.57575780e-03 0. 3.78787890e-03
      3.03030312e-02 3.78787890e-03 3.78787890e-03 0. 0. 3.78787890e-03
      0. 7.57575780e-03 2.65151523e-02 1.13636367e-02 7.57575780e-03
      3.78787890e-03 0. 0. 0. 0. 0. 0. 0. 0. 0. 1.51515156e-02 0.
      1.51515156e-02 1.13636367e-02 7.57575780e-03 3.78787890e-03 0.
      7.57575780e-03 3.03030312e-02 0. 7.57575780e-03 4.16666679e-02 0.
      0. 0. 0. 3.78787890e-03 0. 2.65151523e-02 3.03030312e-02 0. 0. 0.
      0. 0. 0. 0. 3.78787890e-03 3.78787890e-03 0. 0. 0. 4.16666679e-02
      0. 1.89393945e-02 1.51515156e-02 7.57575780e-03 3.78787890e-03 0.
      7.57575780e-03 4.16666679e-02 0. 0. 0. 0. 0. 0. 0. 0. 0. 0. 0. 0.
      0. 0. 0. 0. 0. 0. 0. 3.78787890e-03 0. 0. 0. 3.78787890e-03 0.
      3.78787890e-03 3.78787890e-03 3.78787890e-03 7.57575780e-03 0. 0.
      3.78787890e-03 0. 0. 1.89393945e-02 3.78787890e-03 0. 0. 0. 0. 0.
      7.57575780e-03 1.13636367e-02 3.78787890e-03 0. 0. 0. 0. 0. 0. 0.
      1.13636367e-02 0. 0. 0. 1.13636367e-02 0. 0. 0. 2.65151523e-02 0.
      0. 3.78787890e-03 1.13636367e-02 3.78787890e-03 0. 2.27272734e-02
      3.78787890e-03 0. 0. 0. 0. 3.78787890e-03 1.51515156e-02
      1.89393945e-02 3.78787890e-03 3.78787890e-03 0. 0. 3.78787890e-03
      0. 0. 0. 0. 3.78787890e-03 0. 0. 3.78787890e-03 0. 1.89393945e-02
      1.51515156e-02 1.13636367e-02 0. 0. 0. 3.03030312e-02 0.
      3.78787890e-03 0. 0. 0. 0. 0. 0. 0. 0. 0. 0. 0. 0. 0. 0. 0. 0. 0.
      0. 0. 0. 0. 3.78787890e-03 0. 0. 0. 1.51515156e-02 2.65151523e-02
      0. 7.57575780e-03 7.57575780e-03 0. 0. 3.78787890e-03
      7.57575780e-03 0. 0. 0. 3.78787890e-03 0. 2.65151523e-02
      7.57575780e-02 1.89393945e-02 7.57575780e-03 0. 0. 0. 0. 0. 0.
      3.78787890e-03 0. 0. 0. 3.78787890e-03 0. 1.51515156e-02
      4.54545468e-02 1.51515156e-02 3.78787890e-03 0. 0. 3.78787890e-03
      0. 0. 3.78787890e-03 0. 0. 0. 0. 1.13636367e-02 0. 1.13636367e-02
      4.54545468e-02 1.13636367e-02 0. 0. 0. 0. 0. 0. 0. 0. 0. 0. 0.
      1.13636367e-02 0. 2.65151523e-02 2.27272734e-02 3.03030312e-02 0.
      0. 3.78787890e-03 1.13636367e-02 0. 3.78787890e-03 1.51515156e-02
      0. 0. 0. 0. 7.57575780e-03 0. 3.78787890e-03 2.65151523e-02
      1.13636367e-02 0. 0. 0. 0. 0. 0. 0. 7.57575780e-03 0. 0. 0.
      1.13636367e-02 0. 1.89393945e-02 7.57575780e-03 2.65151523e-02 0.
      0. 0. 1.13636367e-02 0. 3.78787890e-03 0. 0. 0. 0. 0.
      3.78787890e-03 0. 0. 0. 3.78787890e-03 0. 0. 0. 0. 0. 0. 0. 0. 0.
      0. 0. 0. 0. 3.78787890e-03 0.</_>
    <_>
      1.51515156e-02 7.57575780e-03 0. 3.78787890e-03 1.89393945e-02
      3.78787890e-03 7.57575780e-03 3.03030312e-02 0. 7.57575780e-03 0.
      0. 2.27272734e-02 0. 1.13636367e-02 7.57575780e-03 3.78787890e-03
      0. 0. 3.78787890e-03 3.78787890e-03 0. 0. 0. 7.57575780e-03
      3.78787890e-03 3.78787890e-03 0. 2.27272734e-02 3.78787890e-03 0.
      1.13636367e-02 2.27272734e-02 7.57575780e-03 7.57575780e-03
      7.57575780e-03 1.51515156e-02 7.57575780e-03 3.78787890e-03
      2.65151523e-02 3.78787890e-03 0. 0. 0. 3.78787890e-03 0.
      1.51515156e-02 3.03030312e-02 3.78787890e-03 3.78787890e-03
      3.78787890e-03 3.78787890e-03 0. 3.78787890e-03 0. 7.57575780e-03
      7.57575780e-03 0. 0. 0. 2.65151523e-02 0. 0. 2.65151523e-02
      4.92424257e-02 2.27272734e-02 0. 3.78787890e-03 3.78787890e-03
      7.57575780e-03 0. 2.65151523e-02 0. 0. 0. 0. 0. 3.78787890e-03
      3.78787890e-02 3.78787890e-02 2.27272734e-02 7.57575780e-03
      7.57575780e-03 0. 7.57575780e-03 0. 0. 0. 0. 3.78787890e-03
      3.78787890e-03 0. 2.27272734e-02 7.57575780e-03 1.13636367e-02
      4.54545468e-02 5.68181835e-02 3.78787890e-03 1.13636367e-02
      7.57575780e-03 1.13636367e-02 3.78787890e-03 3.78787890e-03
      1.13636367e-02 1.13636367e-02 3.78787890e-03 0. 3.78787890e-03
      3.78787890e-03 7.57575780e-03 1.51515156e-02 1.89393945e-02 0. 0.
      3.78787890e-03 0. 3.78787890e-03 0. 7.57575780e-03 3.78787890e-03
      0. 0. 3.78787890e-03 0. 1.13636367e-02 0. 3.40909101e-02
      1.13636367e-02 3.78787890e-02 3.78787890e-03 1.13636367e-02
      3.78787890e-03 4.54545468e-02 0. 0. 7.57575780e-03 1.13636367e-02
      0. 0. 0. 0. 0. 0. 1.51515156e-02 0. 0. 3.78787890e-03 0. 0. 0. 0.
      3.78787890e-03 0. 0. 0. 0. 1.51515156e-02 0. 1.51515156e-02
      7.57575780e-03 6.81818202e-02 3.78787890e-03 0. 1.13636367e-02
      1.89393945e-02 1.13636367e-02 3.78787890e-03 1.89393945e-02 0.
      3.78787890e-03 0. 0. 0. 0. 7.57575780e-03 3.03030312e-02
      7.57575780e-03 7.57575780e-03 0. 3.78787890e-03 0. 0. 0. 0. 0.
      7.57575780e-03 0. 0. 1.51515156e-02 3.78787890e-03 3.78787890e-03
      1.13636367e-02 7.19697028e-02 3.78787890e-03 7.57575780e-03
      7.57575780e-03 1.13636367e-02 0. 0. 0. 7.57575780e-03 0. 0. 0.
      7.57575780e-03 0. 1.51515156e-02 0. 3.78787890e-03 3.78787890e-03
      0. 3.78787890e-03 7.57575780e-03 0. 0. 0. 7.57575780e-03 0.
      7.57575780e-03 0. 0. 3.78787890e-03 1.89393945e-02 1.51515156e-02
      4.16666679e-02 0. 0. 3.78787890e-03 3.40909101e-02 3.78787890e-03
      3.78787890e-03 0. 3.78787890e-03 0. 0. 0. 0. 0. 3.78787890e-03
      3.78787890e-03 0. 0. 0. 0. 0. 0. 3.78787890e-03 0. 3.78787890e-03
      0. 0. 0. 0. 0. 1.51515156e-02 7.57575780e-03 2.65151523e-02 0. 0.
      0. 7.57575780e-03 3.78787890e-03 1.13636367e-02 1.13636367e-02
      3.78787890e-03 0. 0. 0. 3.78787890e-03 0. 0. 0. 3.78787890e-03 0.
      0. 0. 0. 0. 0. 0. 0. 0. 3.78787890e-03 0. 1.51515156e-02 0.
      3.78787890e-03 3.78787890e-03 3.78787890e-02 0. 0. 3.78787890e-03
      1.51515156e-02 3.78787890e-03 7.57575780e-03 0. 3.78787890e-03
      3.78787890e-03 0. 0. 3.78787890e-03 3.78787890e-03 0.
      3.78787890e-03 0. 3.78787890e-03 0. 3.78787890e-03 7.57575780e-03
      0. 0. 0. 3.78787890e-03 0. 3.78787890e-03 3.78787890e-03
      3.78787890e-03 0. 0. 3.78787890e-03 3.03030312e-02 3.78787890e-03
      7.57575780e-03 3.78787890e-03 7.57575780e-03 0. 1.13636367e-02 0.
      3.78787890e-03 0. 0. 0. 0. 0. 0. 0. 7.57575780e-03 0. 0. 0. 0. 0.
      0. 3.78787890e-03 0. 0. 0. 0. 1.51515156e-02 0. 7.57575780e-03 0.
      3.40909101e-02 7.57575780e-03 3.78787890e-03 0. 2.65151523e-02
      3.78787890e-03 0. 0. 0. 7.57575780e-03 3.78787890e-03
      3.78787890e-03 3.78787890e-03 0. 3.78787890e-03 0. 1.13636367e-02
      0. 3.78787890e-03 0. 3.78787890e-03 0. 0. 0. 0. 3.78787890e-03
      3.78787890e-03 0. 3.78787890e-03 3.78787890e-03 3.78787890e-03
      1.13636367e-02 3.40909101e-02 3.78787890e-03 3.78787890e-03 0.
      2.65151523e-02 0. 7.57575780e-03 3.78787890e-03 3.78787890e-03 0.
      0. 0. 0. 0. 1.89393945e-02 1.13636367e-02 1.13636367e-02
      3.78787890e-03 3.78787890e-03 0. 0. 3.78787890e-03 0. 0. 0. 0. 0.
      0. 3.78787890e-03 3.78787890e-03 1.51515156e-02 2.65151523e-02
      4.16666679e-02 7.57575780e-03 7.57575780e-03 3.78787890e-03
      7.57575780e-03 3.78787890e-03 3.78787890e-03 7.57575780e-03
      3.78787890e-03 0. 0. 0. 7.57575780e-03 3.78787890e-03
      3.78787890e-03 3.78787890e-03 1.13636367e-02 3.78787890e-03 0. 0.
      0. 0. 0. 3.78787890e-03 0. 0. 0. 0. 0. 0. 0. 0. 5.68181835e-02
      1.51515156e-02 1.51515156e-02 0. 1.13636367e-02 3.78787890e-03
      1.13636367e-02 3.78787890e-03 3.78787890e-03 0. 0. 0.
      3.78787890e-03 0. 1.13636367e-02 3.78787890e-03 1.89393945e-02
      3.78787890e-03 0. 3.78787890e-03 0. 0. 0. 0. 1.13636367e-02 0. 0.
      0. 0. 0. 1.13636367e-02 1.13636367e-02 4.16666679e-02
      1.89393945e-02 3.78787890e-03 0. 1.13636367e-02 0. 7.57575780e-03
      0. 7.57575780e-03 3.78787890e-03 0. 3.78787890e-03 0. 0.
      1.13636367e-02 3.78787890e-03 1.13636367e-02 1.51515156e-02
      7.57575780e-03 0. 0. 0. 0. 0. 7.57575780e-03 3.78787890e-03 0. 0.
      0. 0. 1.89393945e-02 7.57575780e-03</_>
    <_>
      6.81818202e-02 1.51515156e-02 7.57575780e-03 0. 1.51515156e-02 0.
      7.57575780e-03 1.89393945e-02 3.78787890e-03 0. 3.78787890e-03 0.
      7.57575780e-03 3.78787890e-03 7.57575780e-03 7.57575780e-03
      3.78787890e-03 0. 3.78787890e-03 3.78787890e-03 0. 0. 0. 0.
      3.78787890e-03 0. 3.78787890e-03 3.78787890e-03 2.27272734e-02 0.
      3.78787890e-03 0. 5.30303046e-02 0. 7.57575780e-03 7.57575780e-03
      1.89393945e-02 0. 3.78787890e-03 1.13636367e-02 7.57575780e-03
